{"learner":{"attributes":{"scikit_learn":"{\"_estimator_type\": \"classifier\"}"},"feature_names":["OPERA_Latin American Wings","MES_7","MES_10","OPERA_Grupo LATAM","MES_12","TIPOVUELO_I","MES_4","MES_11","OPERA_Sky Airline","OPERA_Copa Air"],"feature_types":["int","int","int","int","int","int","int","int","int","int"],"gradient_booster":{"model":{"gbtree_model_param":{"num_parallel_tree":"1","num_trees":"100"},"iteration_indptr":[0,1,2,3,4,5,6,7,8,9,10,11,12,13,14,15,16,17,18,19,20,21,22,23,24,25,26,27,28,29,30,31,32,33,34,35,36,37,38,39,40,41,42,43,44,45,46,47,48,49,50,51,52,53,54,55,56,57,58,59,60,61,62,63,64,65,66,67,68,69,70,71,72,73,74,75,76,77,78,79,80,81,82,83,84,85,86,87,88,89,90,91,92,93,94,95,96,97,98,99,100],"tree_info":[0,0,0,0,0,0,0,0,0,0,0,0,0,0,0,0,0,0,0,0,0,0,0,0,0,0,0,0,0,0,0,0,0,0,0,0,0,0,0,0,0,0,0,0,0,0,0,0,0,0,0,0,0,0,0,0,0,0,0,0,0,0,0,0,0,0,0,0,0,0,0,0,0,0,0,0,0,0,0,0,0,0,0,0,0,0,0,0,0,0,0,0,0,0,0,0,0,0,0,0],"trees":[{"base_weights":[2.8269255E-8,-2.4024513E-1,2.4512151E-1,-3.251997E-1,4.6467134E-1,3.034043E-1,-1.1283534E0,-4.1670424E-1,3.030727E-1,5.3832054E-1,2.8558709E-3,2.505438E-1,1.2384546E0,-1.2592621E0,-1.9555213E-3,-4.9250466E-1,9.418659E-2,3.4063406E-2,7.6786876E-3,8.293624E-1,5.233426E-3,1.9781736E-1,6.869048E-1,1.2951645E0,-3.453251E-4,-1.2261028E-2,-1.5921328E-2,-5.680739E-1,-4.6641625E-2,6.2452096E-2,1.2733189E-2,-1.7761163E-2,8.891341E-3,1.1991147E-2,6.9517246E-3,1.4538553E-1,6.099585E-1,5.5531234E-1,7.631036E-3,1.2406111E0,1.6239807E-2,-5.8403527E-3,3.1228692E-3,-7.591658E-4,8.936535E-3,4.8459406E-4,9.340558E-4,-1.1664338E-3,-2.585571E-5,1.7370962E-3,-1.6521702E-3,5.5162534E-3,9.898592E-3,4.9467837E-3,7.2407727E-3,1.2760755E-2,9.7725615E-3],"categories":[],"categories_nodes":[],"categories_segments":[],"categories_sizes":[],"default_left":[0,0,0,0,0,0,0,0,0,0,0,0,0,0,0,0,0,0,0,0,0,0,0,0,0,0,0,0,0,0,0,0,0,0,0,0,0,0,0,0,0,0,0,0,0,0,0,0,0,0,0,0,0,0,0,0,0],"id":0,"left_children":[1,3,5,7,9,11,13,15,17,19,-1,21,23,25,-1,27,29,31,-1,33,-1,35,37,39,-1,-1,-1,41,43,45,-1,47,-1,-1,-1,49,51,53,-1,55,-1,-1,-1,-1,-1,-1,-1,-1,-1,-1,-1,-1,-1,-1,-1,-1,-1],"loss_changes":[1.096194E3,5.6312354E2,7.379022E2,4.8247974E2,1.3187485E1,4.3660004E2,4.557953E1,2.8367468E2,1.3341351E2,2.6854706E0,0E0,1.9238715E2,3.417108E1,1.6782837E0,0E0,2.1486841E2,3.5360256E1,3.001752E1,0E0,8.194084E-1,0E0,1.6126929E2,8.617645E0,6.103821E0,0E0,0E0,0E0,7.681372E1,2.5541925E1,3.953898E-1,0E0,9.590633E-1,0E0,0E0,0E0,5.8317978E1,1.8122711E1,3.0629578E0,0E0,2.4180298E0,0E0,0E0,0E0,0E0,0E0,0E0,0E0,0E0,0E0,0E0,0E0,0E0,0E0,0E0,0E0,0E0,0E0],"parents":[2147483647,0,0,1,1,2,2,3,3,4,4,5,5,6,6,7,7,8,8,9,9,11,11,12,12,13,13,15,15,16,16,17,17,19,19,21,21,22,22,23,23,27,27,28,28,29,29,31,31,35,35,36,36,37,37,39,39],"right_children":[2,4,6,8,10,12,14,16,18,20,-1,22,24,26,-1,28,30,32,-1,34,-1,36,38,40,-1,-1,-1,42,44,46,-1,48,-1,-1,-1,50,52,54,-1,56,-1,-1,-1,-1,-1,-1,-1,-1,-1,-1,-1,-1,-1,-1,-1,-1,-1],"split_conditions":[1E0,1E0,1E0,1E0,1E0,1E0,1E0,1E0,1E0,1E0,2.8558709E-3,1E0,1E0,1E0,-1.9555213E-3,1E0,1E0,1E0,7.6786876E-3,1E0,5.233426E-3,1E0,1E0,1E0,-3.453251E-4,-1.2261028E-2,-1.5921328E-2,1E0,1E0,1E0,1.2733189E-2,1E0,8.891341E-3,1.1991147E-2,6.9517246E-3,1E0,1E0,1E0,7.631036E-3,1E0,1.6239807E-2,-5.8403527E-3,3.1228692E-3,-7.591658E-4,8.936535E-3,4.8459406E-4,9.340558E-4,-1.1664338E-3,-2.585571E-5,1.7370962E-3,-1.6521702E-3,5.5162534E-3,9.898592E-3,4.9467837E-3,7.2407727E-3,1.2760755E-2,9.7725615E-3],"split_indices":[5,1,9,4,8,0,1,2,8,3,0,1,6,7,0,7,0,0,0,0,0,4,3,2,0,0,0,0,0,8,0,3,0,0,0,6,8,8,0,1,0,0,0,0,0,0,0,0,0,0,0,0,0,0,0,0,0],"split_type":[0,0,0,0,0,0,0,0,0,0,0,0,0,0,0,0,0,0,0,0,0,0,0,0,0,0,0,0,0,0,0,0,0,0,0,0,0,0,0,0,0,0,0,0,0,0,0,0,0,0,0,0,0,0,0,0,0],"sum_hessian":[1.86125E4,9.399757E3,9.212743E3,8.389247E3,1.0105098E3,8.838466E3,3.7427728E2,7.323024E3,1.066223E3,7.146152E2,2.9589465E2,8.366743E3,4.7172296E2,3.279088E2,4.6368496E1,6.376922E3,9.461022E2,6.76031E2,3.9019208E2,3.2315178E1,6.823E2,7.4660566E3,9.0068634E2,4.515879E2,2.0135077E1,3.0246213E2,2.5446684E1,5.4525034E3,9.244185E2,9.2233203E2,2.3770153E1,6.3832245E2,3.7708546E1,6.491709E0,2.582347E1,6.6246357E3,8.414209E2,3.333283E2,5.6735803E2,3.9142078E2,6.016709E1,5.355738E3,9.6765434E1,8.973983E2,2.7020153E1,6.369575E2,2.8537448E2,8.4040306E1,5.5428217E2,6.071419E3,5.53217E2,7.315453E2,1.0987563E2,2.481162E2,8.521212E1,3.4157718E2,4.984362E1],"tree_param":{"num_deleted":"0","num_feature":"10","num_nodes":"57","size_leaf_vector":"1"}},{"base_weights":[5.708187E-6,-2.3783757E-1,2.4267647E-1,-3.2194558E-1,4.600541E-1,3.0038005E-1,-1.117189E0,-4.1253716E-1,3.0005816E-1,5.329751E-1,2.827415E-3,2.4804325E-1,1.2262009E0,-1.2468046E0,-1.9363805E-3,-4.8758227E-1,9.325984E-2,3.373412E-2,7.6022083E-3,8.21651E-1,5.1812045E-3,1.9584157E-1,6.8006593E-1,1.2823527E0,-3.420365E-4,-1.2139278E-2,-1.5769098E-2,-5.6239843E-1,-4.616623E-2,6.1829183E-2,1.261149E-2,-1.7585486E-2,8.804896E-3,1.1887612E-2,6.8848813E-3,1.4393175E-1,6.038832E-1,5.498001E-1,7.5549684E-3,1.2283098E0,1.6081112E-2,-4.0392256E-3,-6.5050116E-3,-7.5158087E-4,8.85053E-3,4.7975685E-4,9.247477E-4,-1.154908E-3,-2.559827E-5,1.7197288E-3,-1.6356776E-3,5.461208E-3,9.800739E-3,4.8975456E-3,7.169297E-3,1.2634034E-2,9.6769845E-3],"categories":[],"categories_nodes":[],"categories_segments":[],"categories_sizes":[],"default_left":[0,0,0,0,0,0,0,0,0,0,0,0,0,0,0,0,0,0,0,0,0,0,0,0,0,0,0,0,0,0,0,0,0,0,0,0,0,0,0,0,0,0,0,0,0,0,0,0,0,0,0,0,0,0,0,0,0],"id":1,"left_children":[1,3,5,7,9,11,13,15,17,19,-1,21,23,25,-1,27,29,31,-1,33,-1,35,37,39,-1,-1,-1,41,43,45,-1,47,-1,-1,-1,49,51,53,-1,55,-1,-1,-1,-1,-1,-1,-1,-1,-1,-1,-1,-1,-1,-1,-1,-1,-1],"loss_changes":[1.0743777E3,5.5195276E2,7.2332526E2,4.728971E2,1.2927856E1,4.280056E2,4.4680145E1,2.7804602E2,1.3076427E2,2.6429596E0,0E0,1.8857825E2,3.34989E1,1.6551208E0,0E0,2.1060376E2,3.4687763E1,2.9435936E1,0E0,8.1015015E-1,0E0,1.5807529E2,8.44455E0,5.9922485E0,0E0,0E0,0E0,7.587915E1,2.5050743E1,3.87563E-1,0E0,9.402065E-1,0E0,0E0,0E0,5.715854E1,1.7770111E1,3.0039597E0,0E0,2.366272E0,0E0,0E0,0E0,0E0,0E0,0E0,0E0,0E0,0E0,0E0,0E0,0E0,0E0,0E0,0E0,0E0,0E0],"parents":[2147483647,0,0,1,1,2,2,3,3,4,4,5,5,6,6,7,7,8,8,9,9,11,11,12,12,13,13,15,15,16,16,17,17,19,19,21,21,22,22,23,23,27,27,28,28,29,29,31,31,35,35,36,36,37,37,39,39],"right_children":[2,4,6,8,10,12,14,16,18,20,-1,22,24,26,-1,28,30,32,-1,34,-1,36,38,40,-1,-1,-1,42,44,46,-1,48,-1,-1,-1,50,52,54,-1,56,-1,-1,-1,-1,-1,-1,-1,-1,-1,-1,-1,-1,-1,-1,-1,-1,-1],"split_conditions":[1E0,1E0,1E0,1E0,1E0,1E0,1E0,1E0,1E0,1E0,2.827415E-3,1E0,1E0,1E0,-1.9363805E-3,1E0,1E0,1E0,7.6022083E-3,1E0,5.1812045E-3,1E0,1E0,1E0,-3.420365E-4,-1.2139278E-2,-1.5769098E-2,1E0,1E0,1E0,1.261149E-2,1E0,8.804896E-3,1.1887612E-2,6.8848813E-3,1E0,1E0,1E0,7.5549684E-3,1E0,1.6081112E-2,-4.0392256E-3,-6.5050116E-3,-7.5158087E-4,8.85053E-3,4.7975685E-4,9.247477E-4,-1.154908E-3,-2.559827E-5,1.7197288E-3,-1.6356776E-3,5.461208E-3,9.800739E-3,4.8975456E-3,7.169297E-3,1.2634034E-2,9.6769845E-3],"split_indices":[5,1,9,4,8,0,1,2,8,3,0,1,6,7,0,7,0,0,0,0,0,4,3,2,0,0,0,3,0,8,0,3,0,0,0,6,8,8,0,1,0,0,0,0,0,0,0,0,0,0,0,0,0,0,0,0,0],"split_type":[0,0,0,0,0,0,0,0,0,0,0,0,0,0,0,0,0,0,0,0,0,0,0,0,0,0,0,0,0,0,0,0,0,0,0,0,0,0,0,0,0,0,0,0,0,0,0,0,0,0,0,0,0,0,0,0,0],"sum_hessian":[1.8612383E4,9.399696E3,9.212687E3,8.389192E3,1.01050397E3,8.838423E3,3.7426425E2,7.322976E3,1.0662166E3,7.1461E2,2.9589404E2,8.366719E3,4.717039E2,3.278958E2,4.636845E1,6.376875E3,9.461011E2,6.760302E2,3.9018634E2,3.2314632E1,6.8229535E2,7.4660435E3,9.006754E2,4.5156882E2,2.0135077E1,3.0245074E2,2.5445072E1,5.452457E3,9.2441785E2,9.223319E2,2.376919E1,6.383224E2,3.77078E1,6.491476E0,2.5823158E1,6.624631E3,8.4141266E2,3.3332565E2,5.673498E2,3.914057E2,6.0163128E1,1.9501632E3,3.502294E3,8.9739825E2,2.7019613E1,6.3695746E2,2.8537442E2,8.4040276E1,5.5428217E2,6.071414E3,5.5321655E2,7.3153973E2,1.0987294E2,2.4811467E2,8.5211E1,3.4156326E2,4.984243E1],"tree_param":{"num_deleted":"0","num_feature":"10","num_nodes":"57","size_leaf_vector":"1"}},{"base_weights":[1.0860933E-5,-2.3545788E-1,2.4025878E-1,-3.187289E-1,4.5548764E-1,2.9738888E-1,-1.106211E0,-4.0841794E-1,2.970774E-1,5.276901E-1,2.7992511E-3,2.4556914E-1,1.2141651E0,-1.2345663E0,-1.917431E-3,-4.8271704E-1,9.2342265E-2,3.3408243E-2,7.526711E-3,8.1403756E-1,5.129571E-3,1.9388625E-1,6.733113E-1,1.2697731E0,-3.3877624E-4,-1.2019624E-2,-1.5620205E-2,-5.5678993E-1,-4.5695998E-2,6.121233E-2,1.249191E-2,-1.7411405E-2,8.719621E-3,1.1785698E-2,6.8188338E-3,1.4249279E-1,5.9787995E-1,5.4435074E-1,7.4798767E-3,1.2162228E0,1.5926002E-2,-5.7256455E-3,3.1319384E-3,-7.4407464E-4,8.765683E-3,4.74965E-4,9.1553404E-4,-1.1434958E-3,-2.5341915E-5,1.7025386E-3,-1.6193555E-3,5.4067927E-3,9.704316E-3,4.848852E-3,7.0987097E-3,1.2509573E-2,9.582786E-3],"categories":[],"categories_nodes":[],"categories_segments":[],"categories_sizes":[],"default_left":[0,0,0,0,0,0,0,0,0,0,0,0,0,0,0,0,0,0,0,0,0,0,0,0,0,0,0,0,0,0,0,0,0,0,0,0,0,0,0,0,0,0,0,0,0,0,0,0,0,0,0,0,0,0,0,0,0],"id":2,"left_children":[1,3,5,7,9,11,13,15,17,19,-1,21,23,25,-1,27,29,31,-1,33,-1,35,37,39,-1,-1,-1,41,43,45,-1,47,-1,-1,-1,49,51,53,-1,55,-1,-1,-1,-1,-1,-1,-1,-1,-1,-1,-1,-1,-1,-1,-1,-1,-1],"loss_changes":[1.0530128E3,5.4101117E2,7.090694E2,4.6351196E2,1.2673935E1,4.196313E2,4.380609E1,2.7253564E2,1.28173E2,2.6013336E0,0E0,1.848526E2,3.2845215E1,1.6334229E0,0E0,2.0643091E2,3.4031017E1,2.886674E1,0E0,8.011894E-1,0E0,1.5494955E2,8.27594E0,5.8858643E0,0E0,0E0,0E0,7.501904E1,2.4569828E1,3.7989855E-1,0E0,9.217217E-1,0E0,0E0,0E0,5.602237E1,1.7426758E1,2.9464035E0,0E0,2.3166504E0,0E0,0E0,0E0,0E0,0E0,0E0,0E0,0E0,0E0,0E0,0E0,0E0,0E0,0E0,0E0,0E0,0E0],"parents":[2147483647,0,0,1,1,2,2,3,3,4,4,5,5,6,6,7,7,8,8,9,9,11,11,12,12,13,13,15,15,16,16,17,17,19,19,21,21,22,22,23,23,27,27,28,28,29,29,31,31,35,35,36,36,37,37,39,39],"right_children":[2,4,6,8,10,12,14,16,18,20,-1,22,24,26,-1,28,30,32,-1,34,-1,36,38,40,-1,-1,-1,42,44,46,-1,48,-1,-1,-1,50,52,54,-1,56,-1,-1,-1,-1,-1,-1,-1,-1,-1,-1,-1,-1,-1,-1,-1,-1,-1],"split_conditions":[1E0,1E0,1E0,1E0,1E0,1E0,1E0,1E0,1E0,1E0,2.7992511E-3,1E0,1E0,1E0,-1.917431E-3,1E0,1E0,1E0,7.526711E-3,1E0,5.129571E-3,1E0,1E0,1E0,-3.3877624E-4,-1.2019624E-2,-1.5620205E-2,1E0,1E0,1E0,1.249191E-2,1E0,8.719621E-3,1.1785698E-2,6.8188338E-3,1E0,1E0,1E0,7.4798767E-3,1E0,1.5926002E-2,-5.7256455E-3,3.1319384E-3,-7.4407464E-4,8.765683E-3,4.74965E-4,9.1553404E-4,-1.1434958E-3,-2.5341915E-5,1.7025386E-3,-1.6193555E-3,5.4067927E-3,9.704316E-3,4.848852E-3,7.0987097E-3,1.2509573E-2,9.582786E-3],"split_indices":[5,1,9,4,8,0,1,2,8,3,0,1,6,7,0,7,0,0,0,0,0,4,3,2,0,0,0,0,0,8,0,3,0,0,0,6,8,8,0,1,0,0,0,0,0,0,0,0,0,0,0,0,0,0,0,0,0],"split_type":[0,0,0,0,0,0,0,0,0,0,0,0,0,0,0,0,0,0,0,0,0,0,0,0,0,0,0,0,0,0,0,0,0,0,0,0,0,0,0,0,0,0,0,0,0,0,0,0,0,0,0,0,0,0,0,0,0],"sum_hessian":[1.8612043E4,9.399522E3,9.2125205E3,8.389036E3,1.01048676E3,8.838295E3,3.742257E2,7.322839E3,1.0661973E3,7.145945E2,2.9589227E2,8.366647E3,4.7164743E2,3.278574E2,4.6368317E1,6.3767407E3,9.4609796E2,6.760279E2,3.901693E2,3.231302E1,6.822815E2,7.4660044E3,9.006432E2,4.5151236E2,2.0135075E1,3.024171E2,2.5440294E1,5.452325E3,9.2441583E2,9.223316E2,2.3766336E1,6.383223E2,3.7705593E1,6.490784E0,2.5822233E1,6.624616E3,8.4138824E2,3.333179E2,5.673253E2,3.91361E2,6.015138E1,5.3555596E3,9.676541E1,8.973978E2,2.7018015E1,6.369574E2,2.8537424E2,8.4040184E1,5.5428217E2,6.071401E3,5.5321545E2,7.3152325E2,1.09864975E2,2.481102E2,8.5207695E1,3.4152206E2,4.9838905E1],"tree_param":{"num_deleted":"0","num_feature":"10","num_nodes":"57","size_leaf_vector":"1"}},{"base_weights":[1.63216E-5,-2.3310405E-1,2.3786797E-1,-3.155474E-1,4.5097178E-1,2.944303E-1,-1.0954133E0,-4.0434387E-1,2.9412955E-1,5.2246505E-1,2.7713818E-3,2.4312106E-1,1.2023401E0,-1.2225403E0,-1.8986706E-3,-4.7790593E-1,9.143407E-2,3.3085525E-2,7.452171E-3,8.065202E-1,5.0785206E-3,1.9195111E-1,6.6663915E-1,1.2574182E0,-3.355494E-4,-1.1902001E0,-1.5474524E-2,-5.51245E-1,-4.5230534E-2,6.0601786E-2,1.2374391E-2,-1.7239109E-2,8.635489E-3,1.1685358E-2,6.753571E-3,1.4106841E-1,5.919474E-1,5.389639E-1,7.4057356E-3,1.2043432E0,1.5774345E-2,-1.2103711E-2,-9.927333E-3,-3.9462177E-3,-6.383211E-3,-7.3664286E-4,8.6819725E-3,4.702232E-4,9.064124E-4,-1.1321953E-3,-2.5089024E-5,1.6855225E-3,-1.6031967E-3,5.352997E-3,9.609288E-3,4.800704E-3,7.0289895E-3,1.2387299E-2,9.489929E-3],"categories":[],"categories_nodes":[],"categories_segments":[],"categories_sizes":[],"default_left":[0,0,0,0,0,0,0,0,0,0,0,0,0,0,0,0,0,0,0,0,0,0,0,0,0,0,0,0,0,0,0,0,0,0,0,0,0,0,0,0,0,0,0,0,0,0,0,0,0,0,0,0,0,0,0,0,0,0,0],"id":3,"left_children":[1,3,5,7,9,11,13,15,17,19,-1,21,23,25,-1,27,29,31,-1,33,-1,35,37,39,-1,41,-1,43,45,47,-1,49,-1,-1,-1,51,53,55,-1,57,-1,-1,-1,-1,-1,-1,-1,-1,-1,-1,-1,-1,-1,-1,-1,-1,-1,-1,-1],"loss_changes":[1.0320815E3,5.302921E2,6.951257E2,4.5431763E2,1.2425552E1,4.11469E2,4.295633E1,2.6713904E2,1.2563803E2,2.5606537E0,0E0,1.812081E2,3.220929E1,1.6130981E0,0E0,2.0234644E2,3.338954E1,2.8309599E1,0E0,7.9249763E-1,0E0,1.5189032E2,8.111572E0,5.784607E0,0E0,6.7443848E-3,0E0,7.4118286E1,2.4098942E1,3.7238288E-1,0E0,9.035971E-1,0E0,0E0,0E0,5.4908813E1,1.7092316E1,2.8901901E0,0E0,2.268921E0,0E0,0E0,0E0,0E0,0E0,0E0,0E0,0E0,0E0,0E0,0E0,0E0,0E0,0E0,0E0,0E0,0E0,0E0,0E0],"parents":[2147483647,0,0,1,1,2,2,3,3,4,4,5,5,6,6,7,7,8,8,9,9,11,11,12,12,13,13,15,15,16,16,17,17,19,19,21,21,22,22,23,23,25,25,27,27,28,28,29,29,31,31,35,35,36,36,37,37,39,39],"right_children":[2,4,6,8,10,12,14,16,18,20,-1,22,24,26,-1,28,30,32,-1,34,-1,36,38,40,-1,42,-1,44,46,48,-1,50,-1,-1,-1,52,54,56,-1,58,-1,-1,-1,-1,-1,-1,-1,-1,-1,-1,-1,-1,-1,-1,-1,-1,-1,-1,-1],"split_conditions":[1E0,1E0,1E0,1E0,1E0,1E0,1E0,1E0,1E0,1E0,2.7713818E-3,1E0,1E0,1E0,-1.8986706E-3,1E0,1E0,1E0,7.452171E-3,1E0,5.0785206E-3,1E0,1E0,1E0,-3.355494E-4,1E0,-1.5474524E-2,1E0,1E0,1E0,1.2374391E-2,1E0,8.635489E-3,1.1685358E-2,6.753571E-3,1E0,1E0,1E0,7.4057356E-3,1E0,1.5774345E-2,-1.2103711E-2,-9.927333E-3,-3.9462177E-3,-6.383211E-3,-7.3664286E-4,8.6819725E-3,4.702232E-4,9.064124E-4,-1.1321953E-3,-2.5089024E-5,1.6855225E-3,-1.6031967E-3,5.352997E-3,9.609288E-3,4.800704E-3,7.0289895E-3,1.2387299E-2,9.489929E-3],"split_indices":[5,1,9,4,8,0,1,2,8,3,0,1,6,7,0,7,0,0,0,0,0,4,3,2,0,2,0,3,0,8,0,3,0,0,0,6,8,8,0,1,0,0,0,0,0,0,0,0,0,0,0,0,0,0,0,0,0,0,0],"split_type":[0,0,0,0,0,0,0,0,0,0,0,0,0,0,0,0,0,0,0,0,0,0,0,0,0,0,0,0,0,0,0,0,0,0,0,0,0,0,0,0,0,0,0,0,0,0,0,0,0,0,0,0,0,0,0,0,0,0,0],"sum_hessian":[1.861148E4,9.399234E3,9.212247E3,8.388775E3,1.0104585E3,8.838085E3,3.741624E2,7.32261E3,1.0661655E3,7.1456915E2,2.958893E2,8.36653E3,4.7155478E2,3.277943E2,4.6368103E1,6.376517E3,9.460928E2,6.760242E2,3.9014136E2,3.231036E1,6.822588E2,7.46594E3,9.005903E2,4.514197E2,2.0135073E1,3.0236185E2,2.543245E1,5.4521045E3,9.2441266E2,9.223311E2,2.3761646E1,6.383222E2,3.770197E1,6.4896455E0,2.5820717E1,6.624592E3,8.413481E2,3.3330508E2,5.6728516E2,3.912876E2,6.0132088E1,2.696843E2,3.267756E1,1.9500665E3,3.502038E3,8.973973E2,2.701539E1,6.3695715E2,2.8537393E2,8.4040054E1,5.5428217E2,6.071378E3,5.532136E2,7.314962E2,1.0985189E2,2.4810281E2,8.520226E1,3.414545E2,4.9833122E1],"tree_param":{"num_deleted":"0","num_feature":"10","num_nodes":"59","size_leaf_vector":"1"}},{"base_weights":[2.0784995E-5,-2.3077717E-1,2.3550257E-1,-3.1240213E-1,4.465054E-1,2.9150385E-1,-1.0848175E0,-4.003161E-1,2.9121444E-1,5.172987E-1,2.743798E-3,2.4069874E-1,1.1907194E0,-1.2107502E0,-1.8800979E-3,-4.7315007E-1,9.0534985E-2,3.276611E-2,7.3785717E-3,7.99097E-1,5.0280415E-3,1.9003601E-1,6.600477E-1,1.2452807E0,-3.32353E-4,-1.1786674E0,-1.5331945E-2,-5.4576474E-1,-4.4769928E-2,5.9997316E-2,1.2258864E-2,-1.7068414E-2,8.552477E-3,1.1586553E-2,6.6890772E-3,1.3965857E-1,5.860844E-1,5.336378E-1,7.332525E-3,1.1926645E0,1.5626017E-2,-1.1986204E-2,-9.832976E-3,-5.6135636E-3,3.14E-3,-7.292862E-4,8.59937E-3,4.6552904E-4,8.973805E-4,-1.1210091E-3,-2.4837213E-5,1.66868E-3,-1.5872E-3,5.2998113E-3,9.515619E-3,4.7530816E-3,6.9601247E-3,1.22671425E-2,9.398379E-3],"categories":[],"categories_nodes":[],"categories_segments":[],"categories_sizes":[],"default_left":[0,0,0,0,0,0,0,0,0,0,0,0,0,0,0,0,0,0,0,0,0,0,0,0,0,0,0,0,0,0,0,0,0,0,0,0,0,0,0,0,0,0,0,0,0,0,0,0,0,0,0,0,0,0,0,0,0,0,0],"id":4,"left_children":[1,3,5,7,9,11,13,15,17,19,-1,21,23,25,-1,27,29,31,-1,33,-1,35,37,39,-1,41,-1,43,45,47,-1,49,-1,-1,-1,51,53,55,-1,57,-1,-1,-1,-1,-1,-1,-1,-1,-1,-1,-1,-1,-1,-1,-1,-1,-1,-1,-1],"loss_changes":[1.0115768E3,5.1979224E2,6.815124E2,4.45312E2,1.2182571E1,4.0351166E2,4.2132385E1,2.6185547E2,1.23158005E2,2.5208282E0,0E0,1.776423E2,3.1590271E1,1.5932922E0,0E0,1.9834937E2,3.2762844E1,2.7764238E1,0E0,7.840729E-1,0E0,1.4889606E2,7.951172E0,5.687866E0,0E0,3.7231445E-3,0E0,7.327173E1,2.3637825E1,3.6501312E-1,0E0,8.858347E-1,0E0,0E0,0E0,5.3817444E1,1.6766449E1,2.8353043E0,0E0,2.2232666E0,0E0,0E0,0E0,0E0,0E0,0E0,0E0,0E0,0E0,0E0,0E0,0E0,0E0,0E0,0E0,0E0,0E0,0E0,0E0],"parents":[2147483647,0,0,1,1,2,2,3,3,4,4,5,5,6,6,7,7,8,8,9,9,11,11,12,12,13,13,15,15,16,16,17,17,19,19,21,21,22,22,23,23,25,25,27,27,28,28,29,29,31,31,35,35,36,36,37,37,39,39],"right_children":[2,4,6,8,10,12,14,16,18,20,-1,22,24,26,-1,28,30,32,-1,34,-1,36,38,40,-1,42,-1,44,46,48,-1,50,-1,-1,-1,52,54,56,-1,58,-1,-1,-1,-1,-1,-1,-1,-1,-1,-1,-1,-1,-1,-1,-1,-1,-1,-1,-1],"split_conditions":[1E0,1E0,1E0,1E0,1E0,1E0,1E0,1E0,1E0,1E0,2.743798E-3,1E0,1E0,1E0,-1.8800979E-3,1E0,1E0,1E0,7.3785717E-3,1E0,5.0280415E-3,1E0,1E0,1E0,-3.32353E-4,1E0,-1.5331945E-2,1E0,1E0,1E0,1.2258864E-2,1E0,8.552477E-3,1.1586553E-2,6.6890772E-3,1E0,1E0,1E0,7.332525E-3,1E0,1.5626017E-2,-1.1986204E-2,-9.832976E-3,-5.6135636E-3,3.14E-3,-7.292862E-4,8.59937E-3,4.6552904E-4,8.973805E-4,-1.1210091E-3,-2.4837213E-5,1.66868E-3,-1.5872E-3,5.2998113E-3,9.515619E-3,4.7530816E-3,6.9601247E-3,1.22671425E-2,9.398379E-3],"split_indices":[5,1,9,4,8,0,1,2,8,3,0,1,6,7,0,7,0,0,0,0,0,4,3,2,0,2,0,0,0,8,0,3,0,0,0,6,8,8,0,1,0,0,0,0,0,0,0,0,0,0,0,0,0,0,0,0,0,0,0],"split_type":[0,0,0,0,0,0,0,0,0,0,0,0,0,0,0,0,0,0,0,0,0,0,0,0,0,0,0,0,0,0,0,0,0,0,0,0,0,0,0,0,0,0,0,0,0,0,0,0,0,0,0,0,0,0,0,0,0,0,0],"sum_hessian":[1.8610709E4,9.398838E3,9.211871E3,8.388418E3,1.0104194E3,8.837796E3,3.740753E2,7.3222964E3,1.0661217E3,7.145341E2,2.9588525E2,8.366368E3,4.7142697E2,3.2770746E2,4.6367805E1,6.376211E3,9.4608563E2,6.76019E2,3.9010278E2,3.230669E1,6.822274E2,7.4658516E3,9.005172E2,4.512919E2,2.0135067E1,3.0228586E2,2.5421623E1,5.4518027E3,9.244081E2,9.223305E2,2.3755177E1,6.38322E2,3.7696968E1,6.488072E0,2.581862E1,6.6245586E3,8.412927E2,3.332874E2,5.672298E2,3.9118643E2,6.0105476E1,2.69615E2,3.2670845E1,5.3550376E3,9.676535E1,8.973963E2,2.7011768E1,6.36957E2,2.8537354E2,8.403986E1,5.5428217E2,6.0713477E3,5.5321106E2,7.3145886E2,1.0983384E2,2.4809264E2,8.519477E1,3.413613E2,4.9825134E1],"tree_param":{"num_deleted":"0","num_feature":"10","num_nodes":"59","size_leaf_vector":"1"}},{"base_weights":[2.5456673E-5,-2.2847542E-1,2.3316313E-1,-3.09291E-1,4.420878E-1,2.8860894E-1,-1.0743915E0,-3.9633214E-1,2.8833124E-1,5.1219016E-1,2.7164991E-3,2.3830166E-1,1.1792967E0,-1.1991593E0,-1.8617056E-3,-4.684466E-1,8.964486E-2,3.2449674E-2,7.3058903E-3,7.9176605E-1,4.978125E-3,1.8814045E-1,6.535359E-1,1.2333541E0,-3.2918472E-4,-1.1673254E0,-1.5192356E-2,-5.403459E-1,-4.431392E-2,5.9398808E-2,1.214527E-2,-1.6899595E-2,8.470556E-3,1.1489239E-2,6.6253417E-3,1.3826278E-1,5.8029E-1,5.283722E-1,7.2602313E-3,1.1811812E0,1.5480895E-2,-1.187067E-2,-9.7399615E-3,-3.8553723E-3,-6.2641893E-3,-7.220018E-4,8.517848E-3,4.608803E-4,8.8843954E-4,-1.1099348E-3,-2.4589952E-5,1.6520052E-3,-1.5713657E-3,5.247229E-3,9.4232755E-3,4.705988E-3,6.892095E-3,1.2149041E-2,9.308108E-3],"categories":[],"categories_nodes":[],"categories_segments":[],"categories_sizes":[],"default_left":[0,0,0,0,0,0,0,0,0,0,0,0,0,0,0,0,0,0,0,0,0,0,0,0,0,0,0,0,0,0,0,0,0,0,0,0,0,0,0,0,0,0,0,0,0,0,0,0,0,0,0,0,0,0,0,0,0,0,0],"id":5,"left_children":[1,3,5,7,9,11,13,15,17,19,-1,21,23,25,-1,27,29,31,-1,33,-1,35,37,39,-1,41,-1,43,45,47,-1,49,-1,-1,-1,51,53,55,-1,57,-1,-1,-1,-1,-1,-1,-1,-1,-1,-1,-1,-1,-1,-1,-1,-1,-1,-1,-1],"loss_changes":[9.9148706E2,5.095051E2,6.6819415E2,4.364889E2,1.1944809E1,3.95752E2,4.133087E1,2.5668005E2,1.2073151E2,2.4818726E0,0E0,1.7415378E2,3.0987732E1,1.574707E0,0E0,1.9443616E2,3.2150482E1,2.7230352E1,0E0,7.7589226E-1,0E0,1.4596552E2,7.7948303E0,5.595642E0,0E0,9.765625E-4,0E0,7.2411255E1,2.3186235E1,3.577931E-1,0E0,8.684197E-1,0E0,0E0,0E0,5.2747818E1,1.6448853E1,2.7816925E0,0E0,2.1793823E0,0E0,0E0,0E0,0E0,0E0,0E0,0E0,0E0,0E0,0E0,0E0,0E0,0E0,0E0,0E0,0E0,0E0,0E0,0E0],"parents":[2147483647,0,0,1,1,2,2,3,3,4,4,5,5,6,6,7,7,8,8,9,9,11,11,12,12,13,13,15,15,16,16,17,17,19,19,21,21,22,22,23,23,25,25,27,27,28,28,29,29,31,31,35,35,36,36,37,37,39,39],"right_children":[2,4,6,8,10,12,14,16,18,20,-1,22,24,26,-1,28,30,32,-1,34,-1,36,38,40,-1,42,-1,44,46,48,-1,50,-1,-1,-1,52,54,56,-1,58,-1,-1,-1,-1,-1,-1,-1,-1,-1,-1,-1,-1,-1,-1,-1,-1,-1,-1,-1],"split_conditions":[1E0,1E0,1E0,1E0,1E0,1E0,1E0,1E0,1E0,1E0,2.7164991E-3,1E0,1E0,1E0,-1.8617056E-3,1E0,1E0,1E0,7.3058903E-3,1E0,4.978125E-3,1E0,1E0,1E0,-3.2918472E-4,1E0,-1.5192356E-2,1E0,1E0,1E0,1.214527E-2,1E0,8.470556E-3,1.1489239E-2,6.6253417E-3,1E0,1E0,1E0,7.2602313E-3,1E0,1.5480895E-2,-1.187067E-2,-9.7399615E-3,-3.8553723E-3,-6.2641893E-3,-7.220018E-4,8.517848E-3,4.608803E-4,8.8843954E-4,-1.1099348E-3,-2.4589952E-5,1.6520052E-3,-1.5713657E-3,5.247229E-3,9.4232755E-3,4.705988E-3,6.892095E-3,1.2149041E-2,9.308108E-3],"split_indices":[5,1,9,4,8,0,1,2,8,3,0,1,6,7,0,7,0,0,0,0,0,4,3,2,0,2,0,3,0,8,0,3,0,0,0,6,8,8,0,1,0,0,0,0,0,0,0,0,0,0,0,0,0,0,0,0,0,0,0],"split_type":[0,0,0,0,0,0,0,0,0,0,0,0,0,0,0,0,0,0,0,0,0,0,0,0,0,0,0,0,0,0,0,0,0,0,0,0,0,0,0,0,0,0,0,0,0,0,0,0,0,0,0,0,0,0,0,0,0,0,0],"sum_hessian":[1.8609729E4,9.398334E3,9.211394E3,8.387964E3,1.01037E3,8.837429E3,3.7396487E2,7.321898E3,1.0660663E3,7.144898E2,2.9588016E2,8.366164E3,4.7126505E2,3.2759744E2,4.636743E1,6.3758213E3,9.460766E2,6.760124E2,3.9005396E2,3.230204E1,6.821878E2,7.4657393E3,9.004246E2,4.5112997E2,2.0135061E1,3.0218954E2,2.5407902E1,5.451419E3,9.244024E2,9.223296E2,2.3746977E1,6.383218E2,3.7690628E1,6.4860754E0,2.5815964E1,6.6245166E3,8.4122253E2,3.33265E2,5.671596E2,3.910582E2,6.0071774E1,2.6952692E2,3.2662613E1,1.9498859E3,3.501533E3,8.973952E2,2.700718E1,6.369566E2,2.85373E2,8.403962E1,5.5428217E2,6.0713086E3,5.532079E2,7.3141156E2,1.0981097E2,2.4807973E2,8.518528E1,3.4124316E2,4.981502E1],"tree_param":{"num_deleted":"0","num_feature":"10","num_nodes":"59","size_leaf_vector":"1"}},{"base_weights":[2.970399E-5,-2.2619978E-1,2.308494E-1,-3.06215E-1,4.3771833E-1,2.8574526E-1,-1.0641301E0,-3.9239302E-1,2.854796E-1,5.071385E-1,2.6894829E-3,2.3592965E-1,1.168066E0,-1.1877608E0,-1.8435E-3,-4.6379665E-1,8.8763766E-2,3.2136198E-2,7.2341124E-3,7.8452516E-1,4.928762E-3,1.8626441E-1,6.471017E-1,1.2216316E0,-3.2605056E-4,-1.1561676E-2,-1.5055653E-2,-5.3498966E-1,-4.386264E-2,5.880637E-2,1.2033549E-2,-1.6732642E-2,8.389705E-3,1.13933785E-2,6.5623457E-3,1.3688123E-1,5.7456213E-1,5.2316546E-1,7.188829E-3,1.1698871E0,1.5338868E-2,-5.5040196E-3,3.1470847E-3,-7.147907E-4,8.437386E-3,4.562793E-4,8.795884E-4,-1.0989715E-3,-2.4347235E-5,1.6355007E-3,-1.5556905E-3,5.1952293E-3,9.332223E-3,4.659408E-3,6.824882E-3,1.2032928E-2,9.219079E-3],"categories":[],"categories_nodes":[],"categories_segments":[],"categories_sizes":[],"default_left":[0,0,0,0,0,0,0,0,0,0,0,0,0,0,0,0,0,0,0,0,0,0,0,0,0,0,0,0,0,0,0,0,0,0,0,0,0,0,0,0,0,0,0,0,0,0,0,0,0,0,0,0,0,0,0,0,0],"id":6,"left_children":[1,3,5,7,9,11,13,15,17,19,-1,21,23,25,-1,27,29,31,-1,33,-1,35,37,39,-1,-1,-1,41,43,45,-1,47,-1,-1,-1,49,51,53,-1,55,-1,-1,-1,-1,-1,-1,-1,-1,-1,-1,-1,-1,-1,-1,-1,-1,-1],"loss_changes":[9.718097E2,4.9942792E2,6.551631E2,4.2784644E2,1.1712189E1,3.881834E2,4.055075E1,2.5161267E2,1.1835726E2,2.443695E0,0E0,1.7073999E2,3.0400879E1,1.557251E0,0E0,1.9060632E2,3.155199E1,2.6707684E1,0E0,7.679539E-1,0E0,1.4309628E2,7.6422424E0,5.5076294E0,0E0,0E0,0E0,7.157117E1,2.2743954E1,3.5071468E-1,0E0,8.5134596E-1,0E0,0E0,0E0,5.169954E1,1.6139282E1,2.729309E0,0E0,2.137207E0,0E0,0E0,0E0,0E0,0E0,0E0,0E0,0E0,0E0,0E0,0E0,0E0,0E0,0E0,0E0,0E0,0E0],"parents":[2147483647,0,0,1,1,2,2,3,3,4,4,5,5,6,6,7,7,8,8,9,9,11,11,12,12,13,13,15,15,16,16,17,17,19,19,21,21,22,22,23,23,27,27,28,28,29,29,31,31,35,35,36,36,37,37,39,39],"right_children":[2,4,6,8,10,12,14,16,18,20,-1,22,24,26,-1,28,30,32,-1,34,-1,36,38,40,-1,-1,-1,42,44,46,-1,48,-1,-1,-1,50,52,54,-1,56,-1,-1,-1,-1,-1,-1,-1,-1,-1,-1,-1,-1,-1,-1,-1,-1,-1],"split_conditions":[1E0,1E0,1E0,1E0,1E0,1E0,1E0,1E0,1E0,1E0,2.6894829E-3,1E0,1E0,1E0,-1.8435E-3,1E0,1E0,1E0,7.2341124E-3,1E0,4.928762E-3,1E0,1E0,1E0,-3.2605056E-4,-1.1561676E-2,-1.5055653E-2,1E0,1E0,1E0,1.2033549E-2,1E0,8.389705E-3,1.13933785E-2,6.5623457E-3,1E0,1E0,1E0,7.188829E-3,1E0,1.5338868E-2,-5.5040196E-3,3.1470847E-3,-7.147907E-4,8.437386E-3,4.562793E-4,8.795884E-4,-1.0989715E-3,-2.4347235E-5,1.6355007E-3,-1.5556905E-3,5.1952293E-3,9.332223E-3,4.659408E-3,6.824882E-3,1.2032928E-2,9.219079E-3],"split_indices":[5,1,9,4,8,0,1,2,8,3,0,1,6,7,0,7,0,0,0,0,0,4,3,2,0,0,0,0,0,8,0,3,0,0,0,6,8,8,0,1,0,0,0,0,0,0,0,0,0,0,0,0,0,0,0,0,0],"split_type":[0,0,0,0,0,0,0,0,0,0,0,0,0,0,0,0,0,0,0,0,0,0,0,0,0,0,0,0,0,0,0,0,0,0,0,0,0,0,0,0,0,0,0,0,0,0,0,0,0,0,0,0,0,0,0,0,0],"sum_hessian":[1.8608549E4,9.397729E3,9.210819E3,8.387418E3,1.0103104E3,8.836987E3,3.7383197E2,7.321419E3,1.0659995E3,7.1443646E2,2.9587396E2,8.365918E3,4.7107007E2,3.27465E2,4.6366978E1,6.375353E3,9.460657E2,6.7600446E2,3.8999512E2,3.2296432E1,6.8214E2,7.4656045E3,9.0031323E2,4.50935E2,2.0135057E1,3.020736E2,2.5391375E1,5.4509575E3,9.243955E2,9.2232855E2,2.3737099E1,6.383215E2,3.768299E1,6.4836664E0,2.5812765E1,6.6244663E3,8.411381E2,3.3323807E2,5.670752E2,3.9090384E2,6.0031178E1,5.3541924E3,9.67653E1,8.9739386E2,2.7001648E1,6.3695624E2,2.8537234E2,8.403932E1,5.5428217E2,6.071262E3,5.5320404E2,7.313547E2,1.0978344E2,2.4806422E2,8.517384E1,3.4110098E2,4.9802834E1],"tree_param":{"num_deleted":"0","num_feature":"10","num_nodes":"57","size_leaf_vector":"1"}},{"base_weights":[3.479826E-5,-2.2394851E-1,2.2856219E-1,-3.031721E-1,4.3339643E-1,2.8291246E-1,-1.0540029E0,-3.884965E-1,2.8265938E-1,5.02143E-1,2.6627448E-3,2.3358253E-1,1.1570215E0,-1.1765202E0,-1.8254764E-3,-4.5919752E-1,8.7891415E-2,3.182623E-2,7.1632173E-3,7.773725E-1,4.879947E-3,1.8440773E-1,6.4074427E-1,1.2101072E0,-3.2294396E-4,-1.1451575E0,-1.4921739E-2,-5.296929E-1,-4.341617E-2,5.8219746E-2,1.1923653E-2,-1.6566891E-2,8.309894E-3,1.129893E-2,6.5000765E-3,1.3551372E-1,5.689006E-1,5.180171E-1,7.118308E-3,1.1587765E0,1.519982E-2,-1.1647117E-2,-9.539926E-3,-3.766623E-3,-6.1478526E-3,-7.076535E-4,8.357957E-3,4.5172367E-4,8.7082357E-4,-1.0881136E-3,-2.4102246E-5,1.6191639E-3,-1.5401741E-3,5.143817E-3,9.24243E-3,4.6133385E-3,6.758473E-3,1.1918747E-2,9.131266E-3],"categories":[],"categories_nodes":[],"categories_segments":[],"categories_sizes":[],"default_left":[0,0,0,0,0,0,0,0,0,0,0,0,0,0,0,0,0,0,0,0,0,0,0,0,0,0,0,0,0,0,0,0,0,0,0,0,0,0,0,0,0,0,0,0,0,0,0,0,0,0,0,0,0,0,0,0,0,0,0],"id":7,"left_children":[1,3,5,7,9,11,13,15,17,19,-1,21,23,25,-1,27,29,31,-1,33,-1,35,37,39,-1,41,-1,43,45,47,-1,49,-1,-1,-1,51,53,55,-1,57,-1,-1,-1,-1,-1,-1,-1,-1,-1,-1,-1,-1,-1,-1,-1,-1,-1,-1,-1],"loss_changes":[9.525351E2,4.895544E2,6.4238684E2,4.193791E2,1.1484512E1,3.807992E2,3.978894E1,2.4664868E2,1.16033646E2,2.4063263E0,0E0,1.6739929E2,2.9829224E1,1.5414429E0,0E0,1.8685596E2,3.0967003E1,2.6195883E1,0E0,7.6023483E-1,0E0,1.4028761E2,7.493408E0,5.423523E0,0E0,2.1270752E-2,0E0,7.0755615E1,2.2310766E1,3.4377432E-1,0E0,8.346107E-1,0E0,0E0,0E0,5.0672188E1,1.583728E1,2.6781387E0,0E0,2.0966797E0,0E0,0E0,0E0,0E0,0E0,0E0,0E0,0E0,0E0,0E0,0E0,0E0,0E0,0E0,0E0,0E0,0E0,0E0,0E0],"parents":[2147483647,0,0,1,1,2,2,3,3,4,4,5,5,6,6,7,7,8,8,9,9,11,11,12,12,13,13,15,15,16,16,17,17,19,19,21,21,22,22,23,23,25,25,27,27,28,28,29,29,31,31,35,35,36,36,37,37,39,39],"right_children":[2,4,6,8,10,12,14,16,18,20,-1,22,24,26,-1,28,30,32,-1,34,-1,36,38,40,-1,42,-1,44,46,48,-1,50,-1,-1,-1,52,54,56,-1,58,-1,-1,-1,-1,-1,-1,-1,-1,-1,-1,-1,-1,-1,-1,-1,-1,-1,-1,-1],"split_conditions":[1E0,1E0,1E0,1E0,1E0,1E0,1E0,1E0,1E0,1E0,2.6627448E-3,1E0,1E0,1E0,-1.8254764E-3,1E0,1E0,1E0,7.1632173E-3,1E0,4.879947E-3,1E0,1E0,1E0,-3.2294396E-4,1E0,-1.4921739E-2,1E0,1E0,1E0,1.1923653E-2,1E0,8.309894E-3,1.129893E-2,6.5000765E-3,1E0,1E0,1E0,7.118308E-3,1E0,1.519982E-2,-1.1647117E-2,-9.539926E-3,-3.766623E-3,-6.1478526E-3,-7.076535E-4,8.357957E-3,4.5172367E-4,8.7082357E-4,-1.0881136E-3,-2.4102246E-5,1.6191639E-3,-1.5401741E-3,5.143817E-3,9.24243E-3,4.6133385E-3,6.758473E-3,1.1918747E-2,9.131266E-3],"split_indices":[5,1,9,4,8,0,1,2,8,3,0,1,6,7,0,7,0,0,0,0,0,4,3,2,0,2,0,3,0,8,0,3,0,0,0,6,8,8,0,1,0,0,0,0,0,0,0,0,0,0,0,0,0,0,0,0,0,0,0],"split_type":[0,0,0,0,0,0,0,0,0,0,0,0,0,0,0,0,0,0,0,0,0,0,0,0,0,0,0,0,0,0,0,0,0,0,0,0,0,0,0,0,0,0,0,0,0,0,0,0,0,0,0,0,0,0,0,0,0,0,0],"sum_hessian":[1.8607174E4,9.397022E3,9.21015E3,8.386781E3,1.010241E3,8.836474E3,3.73677E2,7.32086E3,1.0659219E3,7.1437427E2,2.958668E2,8.36563E3,4.7084308E2,3.2731055E2,4.6366447E1,6.3748066E3,9.46053E2,6.7599524E2,3.8992664E2,3.2289898E1,6.8208435E2,7.465447E3,9.0018353E2,4.50708E2,2.013505E1,3.0193842E2,2.5372122E1,5.4504194E3,9.243875E2,9.223274E2,2.3725594E1,6.383211E2,3.7674103E1,6.4808564E0,2.580904E1,6.624407E3,8.410398E2,3.3320667E2,5.6697687E2,3.9072412E2,5.998391E1,2.6929904E2,3.263938E1,1.9496272E3,3.500792E3,8.9739233E2,2.6995205E1,6.369558E2,2.853716E2,8.4038994E1,5.5428217E2,6.0712075E3,5.531996E2,7.3128845E2,1.0975137E2,2.4804613E2,8.516054E1,3.4093546E2,4.9788643E1],"tree_param":{"num_deleted":"0","num_feature":"10","num_nodes":"59","size_leaf_vector":"1"}},{"base_weights":[3.8810424E-5,-2.2172263E-1,2.2629865E-1,-3.0016336E-1,4.291212E-1,2.801098E-1,-1.044057E0,-3.8464352E-1,2.7986962E-1,4.9720284E-1,2.6362771E-3,2.3125966E-1,1.1461575E0,-1.1654905E0,-1.8076306E-3,-4.5465034E-1,8.702806E-2,3.1519167E-2,7.0931856E-3,7.703065E-1,4.8316703E-3,1.8256989E-1,6.3446164E-1,1.1987746E0,-3.198682E-4,-1.1343532E0,-1.4790519E-2,-5.244568E-1,-4.2974196E-2,5.7639234E-2,1.1815524E-2,-1.6402967E-2,8.231109E-3,1.1205862E-2,6.4385235E-3,1.3415982E-1,5.63304E-1,5.12926E-1,7.048643E-3,1.147844E0,1.50636565E-2,-1.15371095E-2,-9.450976E-3,-5.3969324E-3,3.153219E-3,-7.005869E-4,8.27954E-3,4.4721572E-4,8.621495E-4,-1.0773641E-3,-2.3861803E-5,1.6029901E-3,-1.5248179E-3,5.092977E-3,9.153866E-3,4.5677684E-3,6.692854E-3,1.1806435E-2,9.044638E-3],"categories":[],"categories_nodes":[],"categories_segments":[],"categories_sizes":[],"default_left":[0,0,0,0,0,0,0,0,0,0,0,0,0,0,0,0,0,0,0,0,0,0,0,0,0,0,0,0,0,0,0,0,0,0,0,0,0,0,0,0,0,0,0,0,0,0,0,0,0,0,0,0,0,0,0,0,0,0,0],"id":8,"left_children":[1,3,5,7,9,11,13,15,17,19,-1,21,23,25,-1,27,29,31,-1,33,-1,35,37,39,-1,41,-1,43,45,47,-1,49,-1,-1,-1,51,53,55,-1,57,-1,-1,-1,-1,-1,-1,-1,-1,-1,-1,-1,-1,-1,-1,-1,-1,-1,-1,-1],"loss_changes":[9.336501E2,4.798819E2,6.299085E2,4.110844E2,1.1261765E1,3.7359332E2,3.9049347E1,2.4178809E2,1.1375955E2,2.369751E0,0E0,1.6412982E2,2.9272156E1,1.52594E0,0E0,1.831853E2,3.039508E1,2.5694756E1,0E0,7.5273514E-1,0E0,1.3753798E2,7.348114E0,5.3432007E0,0E0,1.889038E-2,0E0,6.991467E1,2.1886438E1,3.3697295E-1,0E0,8.182023E-1,0E0,0E0,0E0,4.9665344E1,1.5542786E1,2.6281204E0,0E0,2.0576172E0,0E0,0E0,0E0,0E0,0E0,0E0,0E0,0E0,0E0,0E0,0E0,0E0,0E0,0E0,0E0,0E0,0E0,0E0,0E0],"parents":[2147483647,0,0,1,1,2,2,3,3,4,4,5,5,6,6,7,7,8,8,9,9,11,11,12,12,13,13,15,15,16,16,17,17,19,19,21,21,22,22,23,23,25,25,27,27,28,28,29,29,31,31,35,35,36,36,37,37,39,39],"right_children":[2,4,6,8,10,12,14,16,18,20,-1,22,24,26,-1,28,30,32,-1,34,-1,36,38,40,-1,42,-1,44,46,48,-1,50,-1,-1,-1,52,54,56,-1,58,-1,-1,-1,-1,-1,-1,-1,-1,-1,-1,-1,-1,-1,-1,-1,-1,-1,-1,-1],"split_conditions":[1E0,1E0,1E0,1E0,1E0,1E0,1E0,1E0,1E0,1E0,2.6362771E-3,1E0,1E0,1E0,-1.8076306E-3,1E0,1E0,1E0,7.0931856E-3,1E0,4.8316703E-3,1E0,1E0,1E0,-3.198682E-4,1E0,-1.4790519E-2,1E0,1E0,1E0,1.1815524E-2,1E0,8.231109E-3,1.1205862E-2,6.4385235E-3,1E0,1E0,1E0,7.048643E-3,1E0,1.50636565E-2,-1.15371095E-2,-9.450976E-3,-5.3969324E-3,3.153219E-3,-7.005869E-4,8.27954E-3,4.4721572E-4,8.621495E-4,-1.0773641E-3,-2.3861803E-5,1.6029901E-3,-1.5248179E-3,5.092977E-3,9.153866E-3,4.5677684E-3,6.692854E-3,1.1806435E-2,9.044638E-3],"split_indices":[5,1,9,4,8,0,1,2,8,3,0,1,6,7,0,7,0,0,0,0,0,4,3,2,0,2,0,0,0,8,0,3,0,0,0,6,8,8,0,1,0,0,0,0,0,0,0,0,0,0,0,0,0,0,0,0,0,0,0],"split_type":[0,0,0,0,0,0,0,0,0,0,0,0,0,0,0,0,0,0,0,0,0,0,0,0,0,0,0,0,0,0,0,0,0,0,0,0,0,0,0,0,0,0,0,0,0,0,0,0,0,0,0,0,0,0,0,0,0,0,0],"sum_hessian":[1.8605611E4,9.396222E3,9.20939E3,8.38606E3,1.01016223E3,8.835889E3,3.7350107E2,7.3202256E3,1.0658335E3,7.143036E2,2.9585864E2,8.365304E3,4.7058505E2,3.2713522E2,4.6365845E1,6.374187E3,9.460386E2,6.7598474E2,3.898488E2,3.228246E1,6.820211E2,7.465268E3,9.00036E2,4.5045E2,2.013504E1,3.01785E2,2.5350231E1,5.4498086E3,9.2437854E2,9.2232605E2,2.3712505E1,6.3832074E2,3.7663994E1,6.477657E0,2.5804802E1,6.62434E3,8.4092804E2,3.33171E2,5.6686505E2,3.9051984E2,5.9930172E1,2.6915842E2,3.2626587E1,5.3530435E3,9.6765205E1,8.973907E2,2.6987879E1,6.369553E2,2.853708E2,8.40386E1,5.5428217E2,6.0711455E3,5.5319446E2,7.312131E2,1.0971493E2,2.4802559E2,8.514541E1,3.407473E2,4.977251E1],"tree_param":{"num_deleted":"0","num_feature":"10","num_nodes":"59","size_leaf_vector":"1"}},{"base_weights":[4.3197593E-5,-2.1952029E-1,2.2405978E-1,-2.9718658E-1,4.2489195E-1,2.7733716E-1,-1.0342622E0,-3.8083166E-1,2.7711025E-1,4.9231663E-1,2.6100858E-3,2.2896099E-1,1.1354688E0,-1.1546367E0,-1.7899594E-3,-4.501522E-1,8.617315E-2,3.121509E-2,7.024006E-3,7.633253E-1,4.783919E-3,1.8075095E-1,6.2825274E-1,1.1876281E0,-3.1682235E-4,-1.1237178E0,-1.4661898E-2,-5.1927805E-1,-4.2536348E-2,5.70643E-2,1.1709113E-2,-1.6240692E-2,8.153318E-3,1.1114137E-2,6.377672E-3,1.3281968E-1,5.5777085E-1,5.0789136E-1,6.9798217E-3,1.1370846E0,1.4930268E-2,-1.1428846E-2,-9.36323E-3,-3.67991E-3,-6.0341093E-3,-6.935868E-4,8.202112E-3,4.4274982E-4,8.5356174E-4,-1.0667241E-3,-2.3623634E-5,1.5869802E-3,-1.5096107E-3,5.0426973E-3,9.066505E-3,4.522694E-3,6.628009E-3,1.1695941E-2,8.959169E-3],"categories":[],"categories_nodes":[],"categories_segments":[],"categories_sizes":[],"default_left":[0,0,0,0,0,0,0,0,0,0,0,0,0,0,0,0,0,0,0,0,0,0,0,0,0,0,0,0,0,0,0,0,0,0,0,0,0,0,0,0,0,0,0,0,0,0,0,0,0,0,0,0,0,0,0,0,0,0,0],"id":9,"left_children":[1,3,5,7,9,11,13,15,17,19,-1,21,23,25,-1,27,29,31,-1,33,-1,35,37,39,-1,41,-1,43,45,47,-1,49,-1,-1,-1,51,53,55,-1,57,-1,-1,-1,-1,-1,-1,-1,-1,-1,-1,-1,-1,-1,-1,-1,-1,-1,-1,-1],"loss_changes":[9.1514557E2,4.7040396E2,6.1769556E2,4.0295673E2,1.1043655E1,3.6655975E2,3.8328827E1,2.3702612E2,1.1153384E2,2.3338776E0,0E0,1.6092975E2,2.8729187E1,1.5114441E0,0E0,1.795907E2,2.9835865E1,2.5204E1,0E0,7.454319E-1,0E0,1.3484558E2,7.206238E0,5.2664185E0,0E0,1.6815186E-2,0E0,6.914844E1,2.1470747E1,3.3031082E-1,0E0,8.021212E-1,0E0,0E0,0E0,4.867842E1,1.5255432E1,2.579239E0,0E0,2.0199585E0,0E0,0E0,0E0,0E0,0E0,0E0,0E0,0E0,0E0,0E0,0E0,0E0,0E0,0E0,0E0,0E0,0E0,0E0,0E0],"parents":[2147483647,0,0,1,1,2,2,3,3,4,4,5,5,6,6,7,7,8,8,9,9,11,11,12,12,13,13,15,15,16,16,17,17,19,19,21,21,22,22,23,23,25,25,27,27,28,28,29,29,31,31,35,35,36,36,37,37,39,39],"right_children":[2,4,6,8,10,12,14,16,18,20,-1,22,24,26,-1,28,30,32,-1,34,-1,36,38,40,-1,42,-1,44,46,48,-1,50,-1,-1,-1,52,54,56,-1,58,-1,-1,-1,-1,-1,-1,-1,-1,-1,-1,-1,-1,-1,-1,-1,-1,-1,-1,-1],"split_conditions":[1E0,1E0,1E0,1E0,1E0,1E0,1E0,1E0,1E0,1E0,2.6100858E-3,1E0,1E0,1E0,-1.7899594E-3,1E0,1E0,1E0,7.024006E-3,1E0,4.783919E-3,1E0,1E0,1E0,-3.1682235E-4,1E0,-1.4661898E-2,1E0,1E0,1E0,1.1709113E-2,1E0,8.153318E-3,1.1114137E-2,6.377672E-3,1E0,1E0,1E0,6.9798217E-3,1E0,1.4930268E-2,-1.1428846E-2,-9.36323E-3,-3.67991E-3,-6.0341093E-3,-6.935868E-4,8.202112E-3,4.4274982E-4,8.5356174E-4,-1.0667241E-3,-2.3623634E-5,1.5869802E-3,-1.5096107E-3,5.0426973E-3,9.066505E-3,4.522694E-3,6.628009E-3,1.1695941E-2,8.959169E-3],"split_indices":[5,1,9,4,8,0,1,2,8,3,0,1,6,7,0,7,0,0,0,0,0,4,3,2,0,2,0,3,0,8,0,3,0,0,0,6,8,8,0,1,0,0,0,0,0,0,0,0,0,0,0,0,0,0,0,0,0,0,0],"split_type":[0,0,0,0,0,0,0,0,0,0,0,0,0,0,0,0,0,0,0,0,0,0,0,0,0,0,0,0,0,0,0,0,0,0,0,0,0,0,0,0,0,0,0,0,0,0,0,0,0,0,0,0,0,0,0,0,0,0,0],"sum_hessian":[1.8603867E4,9.395325E3,9.208541E3,8.385251E3,1.0100742E3,8.835236E3,3.7330463E2,7.3195166E3,1.0657349E3,7.142247E2,2.9584952E2,8.364939E3,4.702969E2,3.2693945E2,4.6365173E1,6.373494E3,9.460224E2,6.75973E2,3.8976187E2,3.2274147E1,6.8195056E2,7.4650684E3,8.998714E2,4.501619E2,2.013503E1,3.0161368E2,2.532578E1,5.4491255E3,9.243684E2,9.223245E2,2.3697887E1,6.383203E2,3.76527E1,6.4740777E0,2.5800068E1,6.6242646E3,8.408033E2,3.3313116E2,5.667403E2,3.9029172E2,5.9870167E1,2.6900122E2,3.2612453E1,1.9492952E3,3.4998303E3,8.973887E2,2.6979696E1,6.369547E2,2.8536984E2,8.403816E1,5.5428217E2,6.071076E3,5.531887E2,7.31129E2,1.0967423E2,2.4800264E2,8.512852E1,3.4053723E2,4.9754494E1],"tree_param":{"num_deleted":"0","num_feature":"10","num_nodes":"59","size_leaf_vector":"1"}},{"base_weights":[4.710984E-5,-2.1734273E-1,2.2184521E-1,-2.9424313E-1,4.2070818E-1,2.7459413E-1,-1.0246145E0,-3.7706235E-1,2.7438065E-1,4.874841E-1,2.5841605E-3,2.2668627E-1,1.1249502E0,-1.1439543E0,-1.7724652E-3,-4.4570467E-1,8.53269E-2,3.091403E-2,6.955658E-3,7.5642717E-1,4.7366912E-3,1.789507E-1,6.2211627E-1,1.1766623E0,-3.138013E-4,-1.1132467E0,-1.4535795E-2,-5.141583E-1,-4.2103525E-2,5.6495216E-2,1.1604367E-2,-1.6079996E-2,8.076504E-3,1.1023719E-2,6.3175103E-3,1.3149317E-1,5.523006E-1,5.029122E-1,6.911829E-3,1.1264931E0,1.4799562E-2,-1.1322279E-2,-9.276665E-3,-5.292222E-3,3.1584345E-3,-6.866623E-4,8.1256535E-3,4.3833037E-4,8.450591E-4,-1.0561883E-3,-2.338774E-5,1.5711332E-3,-1.4945582E-3,4.9929735E-3,8.980312E-3,4.4781053E-3,6.5639233E-3,1.1587212E-2,8.874827E-3],"categories":[],"categories_nodes":[],"categories_segments":[],"categories_sizes":[],"default_left":[0,0,0,0,0,0,0,0,0,0,0,0,0,0,0,0,0,0,0,0,0,0,0,0,0,0,0,0,0,0,0,0,0,0,0,0,0,0,0,0,0,0,0,0,0,0,0,0,0,0,0,0,0,0,0,0,0,0,0],"id":10,"left_children":[1,3,5,7,9,11,13,15,17,19,-1,21,23,25,-1,27,29,31,-1,33,-1,35,37,39,-1,41,-1,43,45,47,-1,49,-1,-1,-1,51,53,55,-1,57,-1,-1,-1,-1,-1,-1,-1,-1,-1,-1,-1,-1,-1,-1,-1,-1,-1,-1,-1],"loss_changes":[8.970201E2,4.6111896E2,6.057418E2,3.9499512E2,1.08302E1,3.5969287E2,3.762677E1,2.3236255E2,1.0935519E2,2.2987518E0,0E0,1.5779724E2,2.8199768E1,1.4977722E0,0E0,1.7607166E2,2.9288958E1,2.4723362E1,0E0,7.3832893E-1,0E0,1.3220923E2,7.0677795E0,5.192871E0,0E0,1.4923096E-2,0E0,6.83009E1,2.1063547E1,3.2377696E-1,0E0,7.863548E-1,0E0,0E0,0E0,4.7711235E1,1.4975006E1,2.5314407E0,0E0,1.9837646E0,0E0,0E0,0E0,0E0,0E0,0E0,0E0,0E0,0E0,0E0,0E0,0E0,0E0,0E0,0E0,0E0,0E0,0E0,0E0],"parents":[2147483647,0,0,1,1,2,2,3,3,4,4,5,5,6,6,7,7,8,8,9,9,11,11,12,12,13,13,15,15,16,16,17,17,19,19,21,21,22,22,23,23,25,25,27,27,28,28,29,29,31,31,35,35,36,36,37,37,39,39],"right_children":[2,4,6,8,10,12,14,16,18,20,-1,22,24,26,-1,28,30,32,-1,34,-1,36,38,40,-1,42,-1,44,46,48,-1,50,-1,-1,-1,52,54,56,-1,58,-1,-1,-1,-1,-1,-1,-1,-1,-1,-1,-1,-1,-1,-1,-1,-1,-1,-1,-1],"split_conditions":[1E0,1E0,1E0,1E0,1E0,1E0,1E0,1E0,1E0,1E0,2.5841605E-3,1E0,1E0,1E0,-1.7724652E-3,1E0,1E0,1E0,6.955658E-3,1E0,4.7366912E-3,1E0,1E0,1E0,-3.138013E-4,1E0,-1.4535795E-2,1E0,1E0,1E0,1.1604367E-2,1E0,8.076504E-3,1.1023719E-2,6.3175103E-3,1E0,1E0,1E0,6.911829E-3,1E0,1.4799562E-2,-1.1322279E-2,-9.276665E-3,-5.292222E-3,3.1584345E-3,-6.866623E-4,8.1256535E-3,4.3833037E-4,8.450591E-4,-1.0561883E-3,-2.338774E-5,1.5711332E-3,-1.4945582E-3,4.9929735E-3,8.980312E-3,4.4781053E-3,6.5639233E-3,1.1587212E-2,8.874827E-3],"split_indices":[5,1,9,4,8,0,1,2,8,3,0,1,6,7,0,7,0,0,0,0,0,4,3,2,0,2,0,0,0,8,0,3,0,0,0,6,8,8,0,1,0,0,0,0,0,0,0,0,0,0,0,0,0,0,0,0,0,0,0],"split_type":[0,0,0,0,0,0,0,0,0,0,0,0,0,0,0,0,0,0,0,0,0,0,0,0,0,0,0,0,0,0,0,0,0,0,0,0,0,0,0,0,0,0,0,0,0,0,0,0,0,0,0,0,0,0,0,0,0,0,0],"sum_hessian":[1.8601947E4,9.39434E3,9.207606E3,8.384362E3,1.0099773E3,8.834519E3,3.730883E2,7.3187363E3,1.0656262E3,7.141378E2,2.9583945E2,8.364539E3,4.6997974E2,3.2672388E2,4.6364433E1,6.3727314E3,9.460047E2,6.759601E2,3.896662E2,3.2264984E1,6.8187286E2,7.4648486E3,8.996901E2,4.498447E2,2.0135021E1,3.0142502E2,2.5298843E1,5.4483745E3,9.2435724E2,9.2232294E2,2.3681784E1,6.383198E2,3.7640263E1,6.47013E0,2.5794853E1,6.6241826E3,8.406659E2,3.3308728E2,5.6660284E2,3.9004062E2,5.9804092E1,2.68828E2,3.2597023E1,5.3516094E3,9.676512E1,8.9738654E2,2.6970684E1,6.369541E2,2.8536877E2,8.403769E1,5.5428217E2,6.0710005E3,5.531825E2,7.310365E2,1.0962941E2,2.4797737E2,8.51099E1,3.4030597E2,4.9734653E1],"tree_param":{"num_deleted":"0","num_feature":"10","num_nodes":"59","size_leaf_vector":"1"}},{"base_weights":[5.1368013E-5,-2.1518798E-1,2.1965453E-1,-2.9133067E-1,4.165692E-1,2.7188024E-1,-1.0151099E0,-3.7333286E-1,2.7168056E-1,4.8270437E-1,2.558499E-3,2.2443514E-1,1.1145967E0,-1.133438E0,-1.7551449E-3,-4.413046E-1,8.448891E-2,3.0616147E-2,6.888126E-3,7.496106E-1,4.6899784E-3,1.7716888E-1,6.160507E-1,1.1658716E0,-3.108144E-4,-1.1029353E0,-1.4412123E-2,-5.0909394E-1,-4.1674882E-2,5.5931605E-2,1.1501238E-2,-1.5920697E-2,8.000651E-3,1.0934571E-2,6.258028E-3,1.3018009E-1,5.468919E-1,4.9798775E-1,6.8446454E-3,1.1160649E0,1.467145E-2,-1.1217362E-2,-9.191247E-3,-3.5951715E-3,-5.922877E-3,-6.798043E-4,8.050145E-3,4.33953E-4,8.366394E-4,-1.0457578E-3,-2.3151844E-5,1.5554465E-3,-1.4796588E-3,4.9437964E-3,8.895263E-3,4.433997E-3,6.5005827E-3,1.1480192E-2,8.791592E-3],"categories":[],"categories_nodes":[],"categories_segments":[],"categories_sizes":[],"default_left":[0,0,0,0,0,0,0,0,0,0,0,0,0,0,0,0,0,0,0,0,0,0,0,0,0,0,0,0,0,0,0,0,0,0,0,0,0,0,0,0,0,0,0,0,0,0,0,0,0,0,0,0,0,0,0,0,0,0,0],"id":11,"left_children":[1,3,5,7,9,11,13,15,17,19,-1,21,23,25,-1,27,29,31,-1,33,-1,35,37,39,-1,41,-1,43,45,47,-1,49,-1,-1,-1,51,53,55,-1,57,-1,-1,-1,-1,-1,-1,-1,-1,-1,-1,-1,-1,-1,-1,-1,-1,-1,-1,-1],"loss_changes":[8.7925836E2,4.520202E2,5.9404065E2,3.8719336E2,1.0621246E1,3.5298712E2,3.6942474E1,2.2779315E2,1.0722235E2,2.264328E0,0E0,1.5473056E2,2.768341E1,1.4848938E0,0E0,1.7262488E2,2.875401E1,2.4252636E1,0E0,7.314091E-1,0E0,1.2962764E2,6.932556E0,5.1225586E0,0E0,1.3427734E-2,0E0,6.7588135E1,2.0664593E1,3.1737185E-1,0E0,7.709035E-1,0E0,0E0,0E0,4.676339E1,1.4701248E1,2.4847107E0,0E0,1.948883E0,0E0,0E0,0E0,0E0,0E0,0E0,0E0,0E0,0E0,0E0,0E0,0E0,0E0,0E0,0E0,0E0,0E0,0E0,0E0],"parents":[2147483647,0,0,1,1,2,2,3,3,4,4,5,5,6,6,7,7,8,8,9,9,11,11,12,12,13,13,15,15,16,16,17,17,19,19,21,21,22,22,23,23,25,25,27,27,28,28,29,29,31,31,35,35,36,36,37,37,39,39],"right_children":[2,4,6,8,10,12,14,16,18,20,-1,22,24,26,-1,28,30,32,-1,34,-1,36,38,40,-1,42,-1,44,46,48,-1,50,-1,-1,-1,52,54,56,-1,58,-1,-1,-1,-1,-1,-1,-1,-1,-1,-1,-1,-1,-1,-1,-1,-1,-1,-1,-1],"split_conditions":[1E0,1E0,1E0,1E0,1E0,1E0,1E0,1E0,1E0,1E0,2.558499E-3,1E0,1E0,1E0,-1.7551449E-3,1E0,1E0,1E0,6.888126E-3,1E0,4.6899784E-3,1E0,1E0,1E0,-3.108144E-4,1E0,-1.4412123E-2,1E0,1E0,1E0,1.1501238E-2,1E0,8.000651E-3,1.0934571E-2,6.258028E-3,1E0,1E0,1E0,6.8446454E-3,1E0,1.467145E-2,-1.1217362E-2,-9.191247E-3,-3.5951715E-3,-5.922877E-3,-6.798043E-4,8.050145E-3,4.33953E-4,8.366394E-4,-1.0457578E-3,-2.3151844E-5,1.5554465E-3,-1.4796588E-3,4.9437964E-3,8.895263E-3,4.433997E-3,6.5005827E-3,1.1480192E-2,8.791592E-3],"split_indices":[5,1,9,4,8,0,1,2,8,3,0,1,6,7,0,7,0,0,0,0,0,4,3,2,0,2,0,3,0,8,0,3,0,0,0,6,8,8,0,1,0,0,0,0,0,0,0,0,0,0,0,0,0,0,0,0,0,0,0],"split_type":[0,0,0,0,0,0,0,0,0,0,0,0,0,0,0,0,0,0,0,0,0,0,0,0,0,0,0,0,0,0,0,0,0,0,0,0,0,0,0,0,0,0,0,0,0,0,0,0,0,0,0,0,0,0,0,0,0,0,0],"sum_hessian":[1.8599855E4,9.393266E3,9.206589E3,8.383394E3,1.00987177E3,8.833736E3,3.7285275E2,7.317886E3,1.0655079E3,7.140432E2,2.9582855E2,8.364102E3,4.696343E2,3.264891E2,4.636363E1,6.371901E3,9.4598535E2,6.7594604E2,3.8956198E2,3.2254997E1,6.817882E2,7.4646094E3,8.9949274E2,4.494993E2,2.013501E1,3.012196E2,2.5269506E1,5.4475557E3,9.2434503E2,9.223211E2,2.366424E1,6.3831934E2,3.7626717E1,6.4658237E0,2.5789171E1,6.624093E3,8.405163E2,3.3303952E2,5.664532E2,3.8976715E2,5.9732136E1,2.6863925E2,3.258034E1,1.9488949E3,3.4986606E3,8.9738416E2,2.6960863E1,6.369534E2,2.8536768E2,8.403717E1,5.5428217E2,6.0709175E3,5.5317566E2,7.3093567E2,1.0958061E2,2.4794986E2,8.5089645E1,3.400541E2,4.971304E1],"tree_param":{"num_deleted":"0","num_feature":"10","num_nodes":"59","size_leaf_vector":"1"}},{"base_weights":[5.513065E-5,-2.1305732E-1,2.1748741E-1,-2.884506E-1,4.1247448E-1,2.6919508E-1,-1.0057442E0,-3.6964467E-1,2.6900917E-1,4.7797653E-1,2.5331029E-3,2.222073E-1,1.1044035E0,-1.123083E0,-1.7379965E-3,-4.369537E-1,8.365965E-2,3.0320743E-2,6.8213944E-3,7.428736E-1,4.6437713E-3,1.7540525E-1,6.1005497E-1,1.155251E0,-3.0785287E-4,-1.0927788E0,-1.4290803E-2,-5.040869E-1,-4.125065E-2,5.5373967E-2,1.13996845E-2,-1.5763432E-2,7.925729E-3,1.0846668E-2,6.199207E-3,1.2888025E-1,5.4154396E-1,4.931171E-1,6.7782574E-3,1.1057951E0,1.4545839E-2,-1.1114044E-2,-9.106948E-3,-5.189813E-3,3.16276E-3,-6.73015E-4,7.975559E-3,4.2962335E-4,8.2830596E-4,-1.035429E-3,-2.2923852E-5,1.5399179E-3,-1.4649075E-3,4.895157E-3,8.811333E-3,4.3903603E-3,6.437977E-3,1.1374832E-2,8.709436E-3],"categories":[],"categories_nodes":[],"categories_segments":[],"categories_sizes":[],"default_left":[0,0,0,0,0,0,0,0,0,0,0,0,0,0,0,0,0,0,0,0,0,0,0,0,0,0,0,0,0,0,0,0,0,0,0,0,0,0,0,0,0,0,0,0,0,0,0,0,0,0,0,0,0,0,0,0,0,0,0],"id":12,"left_children":[1,3,5,7,9,11,13,15,17,19,-1,21,23,25,-1,27,29,31,-1,33,-1,35,37,39,-1,41,-1,43,45,47,-1,49,-1,-1,-1,51,53,55,-1,57,-1,-1,-1,-1,-1,-1,-1,-1,-1,-1,-1,-1,-1,-1,-1,-1,-1,-1,-1],"loss_changes":[8.6185944E2,4.4310623E2,5.825856E2,3.7955017E2,1.04166565E1,3.464372E2,3.627527E1,2.2331854E2,1.0513447E2,2.2305756E0,0E0,1.5172833E2,2.717981E1,1.4727478E0,0E0,1.6925037E2,2.8230673E1,2.3791561E1,0E0,7.246609E-1,0E0,1.2709952E2,6.8004456E0,5.0550537E0,0E0,1.2023926E-2,0E0,6.672827E1,2.0273684E1,3.1109166E-1,0E0,7.5574493E-1,0E0,0E0,0E0,4.5834343E1,1.4433945E1,2.439003E0,0E0,1.9152222E0,0E0,0E0,0E0,0E0,0E0,0E0,0E0,0E0,0E0,0E0,0E0,0E0,0E0,0E0,0E0,0E0,0E0,0E0,0E0],"parents":[2147483647,0,0,1,1,2,2,3,3,4,4,5,5,6,6,7,7,8,8,9,9,11,11,12,12,13,13,15,15,16,16,17,17,19,19,21,21,22,22,23,23,25,25,27,27,28,28,29,29,31,31,35,35,36,36,37,37,39,39],"right_children":[2,4,6,8,10,12,14,16,18,20,-1,22,24,26,-1,28,30,32,-1,34,-1,36,38,40,-1,42,-1,44,46,48,-1,50,-1,-1,-1,52,54,56,-1,58,-1,-1,-1,-1,-1,-1,-1,-1,-1,-1,-1,-1,-1,-1,-1,-1,-1,-1,-1],"split_conditions":[1E0,1E0,1E0,1E0,1E0,1E0,1E0,1E0,1E0,1E0,2.5331029E-3,1E0,1E0,1E0,-1.7379965E-3,1E0,1E0,1E0,6.8213944E-3,1E0,4.6437713E-3,1E0,1E0,1E0,-3.0785287E-4,1E0,-1.4290803E-2,1E0,1E0,1E0,1.13996845E-2,1E0,7.925729E-3,1.0846668E-2,6.199207E-3,1E0,1E0,1E0,6.7782574E-3,1E0,1.4545839E-2,-1.1114044E-2,-9.106948E-3,-5.189813E-3,3.16276E-3,-6.73015E-4,7.975559E-3,4.2962335E-4,8.2830596E-4,-1.035429E-3,-2.2923852E-5,1.5399179E-3,-1.4649075E-3,4.895157E-3,8.811333E-3,4.3903603E-3,6.437977E-3,1.1374832E-2,8.709436E-3],"split_indices":[5,1,9,4,8,0,1,2,8,3,0,1,6,7,0,7,0,0,0,0,0,4,3,2,0,2,0,0,0,8,0,3,0,0,0,6,8,8,0,1,0,0,0,0,0,0,0,0,0,0,0,0,0,0,0,0,0,0,0],"split_type":[0,0,0,0,0,0,0,0,0,0,0,0,0,0,0,0,0,0,0,0,0,0,0,0,0,0,0,0,0,0,0,0,0,0,0,0,0,0,0,0,0,0,0,0,0,0,0,0,0,0,0,0,0,0,0,0,0,0,0],"sum_hessian":[1.8597598E4,9.392107E3,9.20549E3,8.38235E3,1.0097578E3,8.832892E3,3.7259857E2,7.316969E3,1.0653804E3,7.139411E2,2.9581674E2,8.363631E3,4.6926157E2,3.262358E2,4.636276E1,6.371005E3,9.459644E2,6.7593085E2,3.8944955E2,3.2244205E1,6.816969E2,7.4643506E3,8.992797E2,4.491266E2,2.0134998E1,3.00998E2,2.5237833E1,5.446673E3,9.24332E2,9.2231915E2,2.36453E1,6.383187E2,3.7612095E1,6.461168E0,2.578304E1,6.623996E3,8.4035486E2,3.3298798E2,5.662918E2,3.894721E2,5.9654484E1,2.6843555E2,3.2562447E1,5.349908E3,9.6765045E1,8.973817E2,2.6950262E1,6.369527E2,2.8536642E2,8.4036606E1,5.5428217E2,6.0708276E3,5.531682E2,7.3082684E2,1.0952796E2,2.4792018E2,8.506778E1,3.3978238E2,4.9689716E1],"tree_param":{"num_deleted":"0","num_feature":"10","num_nodes":"59","size_leaf_vector":"1"}},{"base_weights":[5.925808E-5,-2.1094878E-1,2.153435E-1,-2.8560057E-1,4.084233E-1,2.665383E-1,-9.965142E-1,-3.6599514E-1,2.6636648E-1,4.7329995E-1,2.507964E-3,2.2000243E-1,1.0943664E0,-1.1128852E0,-1.7210155E-3,-4.3264878E-1,8.283834E-2,3.0028494E-2,6.755449E-3,7.362153E-1,4.598064E-3,1.736596E-1,6.041278E-1,1.1447958E0,-3.0491804E-4,-1.0827736E0,-1.4171759E-2,-4.9913338E-1,-4.083089E-2,5.4821555E-2,1.1299665E-2,-1.5607468E-2,7.851726E-3,1.0759978E-2,6.1410456E-3,1.2759349E-1,5.3625566E-1,4.8829952E-1,6.7126495E-3,1.0956798E0,1.4422653E-2,-1.1012286E-2,-9.023747E-3,-3.5123592E-3,-5.814068E-3,-6.662951E-4,7.901885E-3,4.2533223E-4,8.200553E-4,-1.0252054E-3,-2.2694778E-5,1.524546E-3,-1.4503092E-3,4.847048E-3,8.728493E-3,4.347191E-3,6.3760905E-3,1.1271091E-2,8.628333E-3],"categories":[],"categories_nodes":[],"categories_segments":[],"categories_sizes":[],"default_left":[0,0,0,0,0,0,0,0,0,0,0,0,0,0,0,0,0,0,0,0,0,0,0,0,0,0,0,0,0,0,0,0,0,0,0,0,0,0,0,0,0,0,0,0,0,0,0,0,0,0,0,0,0,0,0,0,0,0,0],"id":13,"left_children":[1,3,5,7,9,11,13,15,17,19,-1,21,23,25,-1,27,29,31,-1,33,-1,35,37,39,-1,41,-1,43,45,47,-1,49,-1,-1,-1,51,53,55,-1,57,-1,-1,-1,-1,-1,-1,-1,-1,-1,-1,-1,-1,-1,-1,-1,-1,-1,-1,-1],"loss_changes":[8.4480865E2,4.3437064E2,5.713708E2,3.7206012E2,1.021637E1,3.4003864E2,3.5624542E1,2.189336E2,1.0309019E2,2.197464E0,0E0,1.4878876E2,2.6688293E1,1.4613953E0,0E0,1.6594434E2,2.7718653E1,2.3339903E1,0E0,7.180824E-1,0E0,1.2462358E2,6.6713257E0,4.9904785E0,0E0,1.0894775E-2,0E0,6.6071655E1,1.9890684E1,3.049426E-1,0E0,7.40894E-1,0E0,0E0,0E0,4.4923958E1,1.4172852E1,2.3943024E0,0E0,1.882782E0,0E0,0E0,0E0,0E0,0E0,0E0,0E0,0E0,0E0,0E0,0E0,0E0,0E0,0E0,0E0,0E0,0E0,0E0,0E0],"parents":[2147483647,0,0,1,1,2,2,3,3,4,4,5,5,6,6,7,7,8,8,9,9,11,11,12,12,13,13,15,15,16,16,17,17,19,19,21,21,22,22,23,23,25,25,27,27,28,28,29,29,31,31,35,35,36,36,37,37,39,39],"right_children":[2,4,6,8,10,12,14,16,18,20,-1,22,24,26,-1,28,30,32,-1,34,-1,36,38,40,-1,42,-1,44,46,48,-1,50,-1,-1,-1,52,54,56,-1,58,-1,-1,-1,-1,-1,-1,-1,-1,-1,-1,-1,-1,-1,-1,-1,-1,-1,-1,-1],"split_conditions":[1E0,1E0,1E0,1E0,1E0,1E0,1E0,1E0,1E0,1E0,2.507964E-3,1E0,1E0,1E0,-1.7210155E-3,1E0,1E0,1E0,6.755449E-3,1E0,4.598064E-3,1E0,1E0,1E0,-3.0491804E-4,1E0,-1.4171759E-2,1E0,1E0,1E0,1.1299665E-2,1E0,7.851726E-3,1.0759978E-2,6.1410456E-3,1E0,1E0,1E0,6.7126495E-3,1E0,1.4422653E-2,-1.1012286E-2,-9.023747E-3,-3.5123592E-3,-5.814068E-3,-6.662951E-4,7.901885E-3,4.2533223E-4,8.200553E-4,-1.0252054E-3,-2.2694778E-5,1.524546E-3,-1.4503092E-3,4.847048E-3,8.728493E-3,4.347191E-3,6.3760905E-3,1.1271091E-2,8.628333E-3],"split_indices":[5,1,9,4,8,0,1,2,8,3,0,1,6,7,0,7,0,0,0,0,0,4,3,2,0,2,0,3,0,8,0,3,0,0,0,6,8,8,0,1,0,0,0,0,0,0,0,0,0,0,0,0,0,0,0,0,0,0,0],"split_type":[0,0,0,0,0,0,0,0,0,0,0,0,0,0,0,0,0,0,0,0,0,0,0,0,0,0,0,0,0,0,0,0,0,0,0,0,0,0,0,0,0,0,0,0,0,0,0,0,0,0,0,0,0,0,0,0,0,0,0],"sum_hessian":[1.859518E4,9.390866E3,9.204314E3,8.38123E3,1.0096358E3,8.831988E3,3.7232632E2,7.3159863E3,1.0652438E3,7.138317E2,2.958041E2,8.363126E3,4.6886246E2,3.259645E2,4.636183E1,6.3700444E3,9.459421E2,6.7591455E2,3.8932916E2,3.2232643E1,6.8159906E2,7.4640737E3,8.990517E2,4.4872748E2,2.0134987E1,3.007606E2,2.5203903E1,5.4457266E3,9.243179E2,9.223171E2,2.362501E1,6.383182E2,3.759643E1,6.4561744E0,2.5776468E1,6.623892E3,8.4018195E2,3.3293277E2,5.6611896E2,3.8915616E2,5.957132E1,2.6821722E2,3.254337E1,1.9484308E3,3.4972957E3,8.973789E2,2.6938906E1,6.369519E2,2.8536514E2,8.403601E1,5.5428217E2,6.0707314E3,5.531603E2,7.307104E2,1.09471565E2,2.478884E2,8.5044365E1,3.3949142E2,4.9664738E1],"tree_param":{"num_deleted":"0","num_feature":"10","num_nodes":"59","size_leaf_vector":"1"}},{"base_weights":[6.276515E-5,-2.0886381E-1,2.1322237E-1,-2.827822E-1,4.0441504E-1,2.6390937E-1,-9.8741555E-1,-3.6238596E-1,2.6375198E-1,4.6867374E-1,2.4830804E-3,2.1782017E-1,1.0844806E0,-1.1028392E0,-1.7042073E-3,-4.2839178E-1,8.2025394E-2,2.9739259E-2,6.690272E-3,7.2963357E-1,4.5528486E-3,1.7193158E-1,5.9826803E-1,1.134501E0,-3.0201554E-4,-1.0729145E0,-1.4054918E-2,-4.9423563E-1,-4.041552E-2,5.427481E-2,1.120113E-2,-1.5452892E-2,7.778619E-3,1.0674468E-2,6.083525E-3,1.2631959E-1,5.310258E-1,4.83534E-1,6.647808E-3,1.0857142E0,1.4301807E-2,-1.0912033E-2,-8.941613E-3,-5.089636E-3,3.1662232E-3,-6.596433E-4,7.829099E-3,4.210854E-4,8.118886E-4,-1.0150791E-3,-2.2466786E-5,1.5093272E-3,-1.4358523E-3,4.7994587E-3,8.646719E-3,4.3044807E-3,6.3149044E-3,1.1168917E-2,8.548262E-3],"categories":[],"categories_nodes":[],"categories_segments":[],"categories_sizes":[],"default_left":[0,0,0,0,0,0,0,0,0,0,0,0,0,0,0,0,0,0,0,0,0,0,0,0,0,0,0,0,0,0,0,0,0,0,0,0,0,0,0,0,0,0,0,0,0,0,0,0,0,0,0,0,0,0,0,0,0,0,0],"id":14,"left_children":[1,3,5,7,9,11,13,15,17,19,-1,21,23,25,-1,27,29,31,-1,33,-1,35,37,39,-1,41,-1,43,45,47,-1,49,-1,-1,-1,51,53,55,-1,57,-1,-1,-1,-1,-1,-1,-1,-1,-1,-1,-1,-1,-1,-1,-1,-1,-1,-1,-1],"loss_changes":[8.2810547E2,4.2581216E2,5.6038965E2,3.6472253E2,1.0020248E1,3.3378632E2,3.4989624E1,2.1463898E2,1.01088425E2,2.1649933E0,0E0,1.4591049E2,2.6208618E1,1.4506836E0,0E0,1.6270776E2,2.7217587E1,2.2897423E1,0E0,7.116642E-1,0E0,1.2219858E2,6.545288E0,4.928528E0,0E0,9.979248E-3,0E0,6.5195435E1,1.9515379E1,2.989149E-1,0E0,7.2633135E-1,0E0,0E0,0E0,4.403148E1,1.3917847E1,2.3505554E0,0E0,1.8513794E0,0E0,0E0,0E0,0E0,0E0,0E0,0E0,0E0,0E0,0E0,0E0,0E0,0E0,0E0,0E0,0E0,0E0,0E0,0E0],"parents":[2147483647,0,0,1,1,2,2,3,3,4,4,5,5,6,6,7,7,8,8,9,9,11,11,12,12,13,13,15,15,16,16,17,17,19,19,21,21,22,22,23,23,25,25,27,27,28,28,29,29,31,31,35,35,36,36,37,37,39,39],"right_children":[2,4,6,8,10,12,14,16,18,20,-1,22,24,26,-1,28,30,32,-1,34,-1,36,38,40,-1,42,-1,44,46,48,-1,50,-1,-1,-1,52,54,56,-1,58,-1,-1,-1,-1,-1,-1,-1,-1,-1,-1,-1,-1,-1,-1,-1,-1,-1,-1,-1],"split_conditions":[1E0,1E0,1E0,1E0,1E0,1E0,1E0,1E0,1E0,1E0,2.4830804E-3,1E0,1E0,1E0,-1.7042073E-3,1E0,1E0,1E0,6.690272E-3,1E0,4.5528486E-3,1E0,1E0,1E0,-3.0201554E-4,1E0,-1.4054918E-2,1E0,1E0,1E0,1.120113E-2,1E0,7.778619E-3,1.0674468E-2,6.083525E-3,1E0,1E0,1E0,6.647808E-3,1E0,1.4301807E-2,-1.0912033E-2,-8.941613E-3,-5.089636E-3,3.1662232E-3,-6.596433E-4,7.829099E-3,4.210854E-4,8.118886E-4,-1.0150791E-3,-2.2466786E-5,1.5093272E-3,-1.4358523E-3,4.7994587E-3,8.646719E-3,4.3044807E-3,6.3149044E-3,1.1168917E-2,8.548262E-3],"split_indices":[5,1,9,4,8,0,1,2,8,3,0,1,6,7,0,7,0,0,0,0,0,4,3,2,0,2,0,0,0,8,0,3,0,0,0,6,8,8,0,1,0,0,0,0,0,0,0,0,0,0,0,0,0,0,0,0,0,0,0],"split_type":[0,0,0,0,0,0,0,0,0,0,0,0,0,0,0,0,0,0,0,0,0,0,0,0,0,0,0,0,0,0,0,0,0,0,0,0,0,0,0,0,0,0,0,0,0,0,0,0,0,0,0,0,0,0,0,0,0,0,0],"sum_hessian":[1.859261E4,9.389546E3,9.203063E3,8.38004E3,1.00950604E3,8.831026E3,3.7203668E2,7.314942E3,1.0650984E3,7.1371533E2,2.9579065E2,8.362589E3,4.6843777E2,3.2567587E2,4.6360832E1,6.369024E3,9.459182E2,6.758973E2,3.8920105E2,3.2220325E1,6.8149506E2,7.46378E3,8.98809E2,4.483028E2,2.0134972E1,3.005081E2,2.5167788E1,5.4447207E3,9.2430286E2,9.223148E2,2.360341E1,6.383175E2,3.7579765E1,6.4508505E0,2.5769474E1,6.6237817E3,8.3999805E2,3.3287402E2,5.65935E2,3.8881998E2,5.948283E1,2.6798492E2,3.252316E1,5.347956E3,9.676498E1,8.9737604E2,2.6926815E1,6.3695105E2,2.8536374E2,8.403537E1,5.5428217E2,6.07063E3,5.531519E2,7.305864E2,1.0941157E2,2.4785458E2,8.501945E1,3.3918182E2,4.9638153E1],"tree_param":{"num_deleted":"0","num_feature":"10","num_nodes":"59","size_leaf_vector":"1"}},{"base_weights":[6.6745604E-5,-2.0680021E-1,2.1112394E-1,-2.7999297E-1,4.004493E-1,2.6130816E-1,-9.784454E-1,-3.5881424E-1,2.6116523E-1,4.6409723E-1,2.4584546E-3,2.1566051E-1,1.0747418E0,-1.0929419E0,-1.6875623E-3,-4.241794E-1,8.122057E-2,2.945258E-2,6.6258567E-3,7.231273E-1,4.508118E-3,1.702213E-1,5.924746E-1,1.1243619E0,-2.9913965E-4,-1.0631982E0,-1.3940208E-2,-4.893898E-1,-4.000425E-2,5.373354E-2,1.1104043E-2,-1.530015E-2,7.706391E-3,1.0590112E-2,6.0266373E-3,1.2505862E-1,5.258542E-1,4.7882026E-1,6.583719E-3,1.0758942E0,1.4183226E-2,-1.0813255E-2,-8.860527E-3,-3.4314145E-3,-5.707612E-3,-6.530564E-4,7.7571813E-3,4.168817E-4,8.0380245E-4,-1.0050576E-3,-2.2243936E-5,1.4942632E-3,-1.4215404E-3,4.752388E-3,8.565985E-3,4.2622266E-3,6.2544197E-3,1.1068268E-2,8.469194E-3],"categories":[],"categories_nodes":[],"categories_segments":[],"categories_sizes":[],"default_left":[0,0,0,0,0,0,0,0,0,0,0,0,0,0,0,0,0,0,0,0,0,0,0,0,0,0,0,0,0,0,0,0,0,0,0,0,0,0,0,0,0,0,0,0,0,0,0,0,0,0,0,0,0,0,0,0,0,0,0],"id":15,"left_children":[1,3,5,7,9,11,13,15,17,19,-1,21,23,25,-1,27,29,31,-1,33,-1,35,37,39,-1,41,-1,43,45,47,-1,49,-1,-1,-1,51,53,55,-1,57,-1,-1,-1,-1,-1,-1,-1,-1,-1,-1,-1,-1,-1,-1,-1,-1,-1,-1,-1],"loss_changes":[8.117359E2,4.1742465E2,5.4963715E2,3.5753137E2,9.82814E0,3.276754E2,3.4370148E1,2.1043066E2,9.912844E1,2.1331635E0,0E0,1.4309192E2,2.5740356E1,1.4405823E0,0E0,1.595365E2,2.672718E1,2.2463947E1,0E0,7.0539856E-1,0E0,1.1982352E2,6.4219666E0,4.8690796E0,0E0,9.216309E-3,0E0,6.45979E1,1.9147575E1,2.930045E-1,0E0,7.1205705E-1,0E0,0E0,0E0,4.3156807E1,1.3668564E1,2.3077621E0,0E0,1.821106E0,0E0,0E0,0E0,0E0,0E0,0E0,0E0,0E0,0E0,0E0,0E0,0E0,0E0,0E0,0E0,0E0,0E0,0E0,0E0],"parents":[2147483647,0,0,1,1,2,2,3,3,4,4,5,5,6,6,7,7,8,8,9,9,11,11,12,12,13,13,15,15,16,16,17,17,19,19,21,21,22,22,23,23,25,25,27,27,28,28,29,29,31,31,35,35,36,36,37,37,39,39],"right_children":[2,4,6,8,10,12,14,16,18,20,-1,22,24,26,-1,28,30,32,-1,34,-1,36,38,40,-1,42,-1,44,46,48,-1,50,-1,-1,-1,52,54,56,-1,58,-1,-1,-1,-1,-1,-1,-1,-1,-1,-1,-1,-1,-1,-1,-1,-1,-1,-1,-1],"split_conditions":[1E0,1E0,1E0,1E0,1E0,1E0,1E0,1E0,1E0,1E0,2.4584546E-3,1E0,1E0,1E0,-1.6875623E-3,1E0,1E0,1E0,6.6258567E-3,1E0,4.508118E-3,1E0,1E0,1E0,-2.9913965E-4,1E0,-1.3940208E-2,1E0,1E0,1E0,1.1104043E-2,1E0,7.706391E-3,1.0590112E-2,6.0266373E-3,1E0,1E0,1E0,6.583719E-3,1E0,1.4183226E-2,-1.0813255E-2,-8.860527E-3,-3.4314145E-3,-5.707612E-3,-6.530564E-4,7.7571813E-3,4.168817E-4,8.0380245E-4,-1.0050576E-3,-2.2243936E-5,1.4942632E-3,-1.4215404E-3,4.752388E-3,8.565985E-3,4.2622266E-3,6.2544197E-3,1.1068268E-2,8.469194E-3],"split_indices":[5,1,9,4,8,0,1,2,8,3,0,1,6,7,0,7,0,0,0,0,0,4,3,2,0,2,0,3,0,8,0,3,0,0,0,6,8,8,0,1,0,0,0,0,0,0,0,0,0,0,0,0,0,0,0,0,0,0,0],"split_type":[0,0,0,0,0,0,0,0,0,0,0,0,0,0,0,0,0,0,0,0,0,0,0,0,0,0,0,0,0,0,0,0,0,0,0,0,0,0,0,0,0,0,0,0,0,0,0,0,0,0,0,0,0,0,0,0,0,0,0],"sum_hessian":[1.8589887E4,9.388148E3,9.201739E3,8.378779E3,1.00936865E3,8.830009E3,3.7173016E2,7.313835E3,1.0649445E3,7.135922E2,2.9577643E2,8.3620205E3,4.6798837E2,3.2537036E2,4.6359787E1,6.367942E3,9.45893E2,6.7587897E2,3.890655E2,3.2207275E1,6.8138495E2,7.4634683E3,8.9855225E2,4.4785342E2,2.0134956E1,3.002408E2,2.5129557E1,5.443655E3,9.2428705E2,9.223125E2,2.3580545E1,6.3831683E2,3.7562115E1,6.445208E0,2.5762066E1,6.623665E3,8.3980334E2,3.3281186E2,5.6574036E2,3.8846426E2,5.938917E1,2.6773898E2,3.2501842E1,1.9479076E3,3.4957473E3,8.9737305E2,2.691402E1,6.369502E2,2.8536227E2,8.4034706E1,5.5428217E2,6.070522E3,5.5314307E2,7.304553E2,1.0934806E2,2.4781879E2,8.499307E1,3.3885425E2,4.9610016E1],"tree_param":{"num_deleted":"0","num_feature":"10","num_nodes":"59","size_leaf_vector":"1"}},{"base_weights":[7.010043E-5,-2.0475957E-1,2.0904769E-1,-2.7723446E-1,3.9652517E-1,2.587341E-1,-9.6960026E-1,-3.5528174E-1,2.58606E-1,4.5956957E-1,2.4340763E-3,2.1352291E-1,1.0651464E0,-1.0831888E0,-1.6710816E-3,-4.200136E-1,8.042396E-2,2.9169109E-2,6.56218E-3,7.1669495E-1,4.463864E-3,1.6852827E-1,5.8674604E-1,1.1143745E0,-2.9628753E-4,-1.0536209E0,-1.3827563E-2,-4.8459816E-1,-3.959713E-2,5.3197857E-2,1.1008365E-2,-1.514852E-2,7.6350262E-3,1.0506879E-2,5.9703724E-3,1.2381026E-1,5.20739E-1,4.7415683E-1,6.520367E-3,1.0662163E0,1.4066835E-2,-1.0715907E-2,-8.78046E-3,-4.991625E-3,3.1688458E-3,-6.4653484E-4,7.6861214E-3,4.1272223E-4,7.9579797E-4,-9.951309E-4,-2.2019409E-5,1.4793498E-3,-1.4073753E-3,4.7058207E-3,8.486271E-3,4.2204163E-3,6.194611E-3,1.09691005E-2,8.391118E-3],"categories":[],"categories_nodes":[],"categories_segments":[],"categories_sizes":[],"default_left":[0,0,0,0,0,0,0,0,0,0,0,0,0,0,0,0,0,0,0,0,0,0,0,0,0,0,0,0,0,0,0,0,0,0,0,0,0,0,0,0,0,0,0,0,0,0,0,0,0,0,0,0,0,0,0,0,0,0,0],"id":16,"left_children":[1,3,5,7,9,11,13,15,17,19,-1,21,23,25,-1,27,29,31,-1,33,-1,35,37,39,-1,41,-1,43,45,47,-1,49,-1,-1,-1,51,53,55,-1,57,-1,-1,-1,-1,-1,-1,-1,-1,-1,-1,-1,-1,-1,-1,-1,-1,-1,-1,-1],"loss_changes":[7.956995E2,4.0920657E2,5.391074E2,3.504862E2,9.640045E0,3.217022E2,3.376538E1,2.0630896E2,9.720883E1,2.1019135E0,0E0,1.403316E2,2.5282959E1,1.4310608E0,0E0,1.5643152E2,2.6247145E1,2.2039234E1,0E0,6.9927406E-1,0E0,1.1749696E2,6.3015137E0,4.8120728E0,0E0,8.636475E-3,0E0,6.370105E1,1.8787136E1,2.8720856E-1,0E0,6.9806266E-1,0E0,0E0,0E0,4.2299583E1,1.3425003E1,2.2658844E0,0E0,1.7918091E0,0E0,0E0,0E0,0E0,0E0,0E0,0E0,0E0,0E0,0E0,0E0,0E0,0E0,0E0,0E0,0E0,0E0,0E0,0E0],"parents":[2147483647,0,0,1,1,2,2,3,3,4,4,5,5,6,6,7,7,8,8,9,9,11,11,12,12,13,13,15,15,16,16,17,17,19,19,21,21,22,22,23,23,25,25,27,27,28,28,29,29,31,31,35,35,36,36,37,37,39,39],"right_children":[2,4,6,8,10,12,14,16,18,20,-1,22,24,26,-1,28,30,32,-1,34,-1,36,38,40,-1,42,-1,44,46,48,-1,50,-1,-1,-1,52,54,56,-1,58,-1,-1,-1,-1,-1,-1,-1,-1,-1,-1,-1,-1,-1,-1,-1,-1,-1,-1,-1],"split_conditions":[1E0,1E0,1E0,1E0,1E0,1E0,1E0,1E0,1E0,1E0,2.4340763E-3,1E0,1E0,1E0,-1.6710816E-3,1E0,1E0,1E0,6.56218E-3,1E0,4.463864E-3,1E0,1E0,1E0,-2.9628753E-4,1E0,-1.3827563E-2,1E0,1E0,1E0,1.1008365E-2,1E0,7.6350262E-3,1.0506879E-2,5.9703724E-3,1E0,1E0,1E0,6.520367E-3,1E0,1.4066835E-2,-1.0715907E-2,-8.78046E-3,-4.991625E-3,3.1688458E-3,-6.4653484E-4,7.6861214E-3,4.1272223E-4,7.9579797E-4,-9.951309E-4,-2.2019409E-5,1.4793498E-3,-1.4073753E-3,4.7058207E-3,8.486271E-3,4.2204163E-3,6.194611E-3,1.09691005E-2,8.391118E-3],"split_indices":[5,1,9,4,8,0,1,2,8,3,0,1,6,7,0,7,0,0,0,0,0,4,3,2,0,2,0,0,0,8,0,3,0,0,0,6,8,8,0,1,0,0,0,0,0,0,0,0,0,0,0,0,0,0,0,0,0,0,0],"split_type":[0,0,0,0,0,0,0,0,0,0,0,0,0,0,0,0,0,0,0,0,0,0,0,0,0,0,0,0,0,0,0,0,0,0,0,0,0,0,0,0,0,0,0,0,0,0,0,0,0,0,0,0,0,0,0,0,0,0,0],"sum_hessian":[1.8587021E4,9.386677E3,9.200345E3,8.377453E3,1.009224E3,8.8289375E3,3.7140732E2,7.3126704E3,1.0647823E3,7.134625E2,2.9576144E2,8.361422E3,4.675151E2,3.250486E2,4.635868E1,6.3668037E3,9.4586646E2,6.758597E2,3.8892273E2,3.219352E1,6.8126904E2,7.46314E3,8.9828186E2,4.473802E2,2.0134941E1,2.9995935E2,2.5089277E1,5.4425337E3,9.242703E2,9.2231006E2,2.3556448E1,6.383161E2,3.7543526E1,6.4392543E0,2.5754265E1,6.6235415E3,8.395984E2,3.327464E2,5.655354E2,3.8808966E2,5.9290527E1,2.674799E2,3.2479465E1,5.3457686E3,9.676491E1,8.973698E2,2.6900534E1,6.369493E2,2.8536075E2,8.403399E1,5.5428217E2,6.070408E3,5.531336E2,7.303172E2,1.0928118E2,2.4778111E2,8.49653E1,3.3850928E2,4.9580376E1],"tree_param":{"num_deleted":"0","num_feature":"10","num_nodes":"59","size_leaf_vector":"1"}},{"base_weights":[7.402765E-5,-2.0273964E-1,2.0699362E-1,-2.7450418E-1,3.9264223E-1,2.561872E-1,-9.608767E-1,-3.5178554E-1,2.560736E-1,4.5509017E-1,2.4099436E-3,2.1140751E-1,1.0556903E0,-1.0735756E0,-1.6547636E-3,-4.158909E-1,7.963502E-2,2.8888041E-2,6.499235E-3,7.1033525E-1,4.420081E-3,1.6685273E-1,5.8108175E-1,1.1045344E0,-2.9346682E-4,-1.0441787E0,-1.3716919E-2,-4.7985655E-1,-3.9194223E-2,5.2667234E-2,1.0914056E-2,-1.4998765E-2,7.5645014E-3,1.042474E-2,5.914721E-3,1.2257474E-1,5.1568013E-1,4.6954373E-1,6.4577423E-3,1.0566764E0,1.3952563E-2,-1.06199505E-2,-8.701392E-3,-3.3522833E-3,-5.603433E-3,-6.40079E-4,7.6158983E-3,4.0860137E-4,7.8787055E-4,-9.853086E-4,-2.1800508E-5,1.4645895E-3,-1.3933512E-3,4.6597566E-3,8.407551E-3,4.17905E-3,6.1354768E-3,1.0871377E-2,8.314001E-3],"categories":[],"categories_nodes":[],"categories_segments":[],"categories_sizes":[],"default_left":[0,0,0,0,0,0,0,0,0,0,0,0,0,0,0,0,0,0,0,0,0,0,0,0,0,0,0,0,0,0,0,0,0,0,0,0,0,0,0,0,0,0,0,0,0,0,0,0,0,0,0,0,0,0,0,0,0,0,0],"id":17,"left_children":[1,3,5,7,9,11,13,15,17,19,-1,21,23,25,-1,27,29,31,-1,33,-1,35,37,39,-1,41,-1,43,45,47,-1,49,-1,-1,-1,51,53,55,-1,57,-1,-1,-1,-1,-1,-1,-1,-1,-1,-1,-1,-1,-1,-1,-1,-1,-1,-1,-1],"loss_changes":[7.799829E2,4.0115198E2,5.2879535E2,3.4358112E2,9.455795E0,3.1586163E2,3.3174835E1,2.0226904E2,9.532905E1,2.0712433E0,0E0,1.3762814E2,2.4836304E1,1.4221802E0,0E0,1.533888E2,2.5777206E1,2.1623085E1,0E0,6.93285E-1,0E0,1.15217896E2,6.1836853E0,4.757202E0,0E0,8.148193E-3,0E0,6.3164673E1,1.8433893E1,2.81528E-1,0E0,6.843475E-1,0E0,0E0,0E0,4.145948E1,1.3186859E1,2.224884E0,0E0,1.7634583E0,0E0,0E0,0E0,0E0,0E0,0E0,0E0,0E0,0E0,0E0,0E0,0E0,0E0,0E0,0E0,0E0,0E0,0E0,0E0],"parents":[2147483647,0,0,1,1,2,2,3,3,4,4,5,5,6,6,7,7,8,8,9,9,11,11,12,12,13,13,15,15,16,16,17,17,19,19,21,21,22,22,23,23,25,25,27,27,28,28,29,29,31,31,35,35,36,36,37,37,39,39],"right_children":[2,4,6,8,10,12,14,16,18,20,-1,22,24,26,-1,28,30,32,-1,34,-1,36,38,40,-1,42,-1,44,46,48,-1,50,-1,-1,-1,52,54,56,-1,58,-1,-1,-1,-1,-1,-1,-1,-1,-1,-1,-1,-1,-1,-1,-1,-1,-1,-1,-1],"split_conditions":[1E0,1E0,1E0,1E0,1E0,1E0,1E0,1E0,1E0,1E0,2.4099436E-3,1E0,1E0,1E0,-1.6547636E-3,1E0,1E0,1E0,6.499235E-3,1E0,4.420081E-3,1E0,1E0,1E0,-2.9346682E-4,1E0,-1.3716919E-2,1E0,1E0,1E0,1.0914056E-2,1E0,7.5645014E-3,1.042474E-2,5.914721E-3,1E0,1E0,1E0,6.4577423E-3,1E0,1.3952563E-2,-1.06199505E-2,-8.701392E-3,-3.3522833E-3,-5.603433E-3,-6.40079E-4,7.6158983E-3,4.0860137E-4,7.8787055E-4,-9.853086E-4,-2.1800508E-5,1.4645895E-3,-1.3933512E-3,4.6597566E-3,8.407551E-3,4.17905E-3,6.1354768E-3,1.0871377E-2,8.314001E-3],"split_indices":[5,1,9,4,8,0,1,2,8,3,0,1,6,7,0,7,0,0,0,0,0,4,3,2,0,2,0,3,0,8,0,3,0,0,0,6,8,8,0,1,0,0,0,0,0,0,0,0,0,0,0,0,0,0,0,0,0,0,0],"split_type":[0,0,0,0,0,0,0,0,0,0,0,0,0,0,0,0,0,0,0,0,0,0,0,0,0,0,0,0,0,0,0,0,0,0,0,0,0,0,0,0,0,0,0,0,0,0,0,0,0,0,0,0,0,0,0,0,0,0,0],"sum_hessian":[1.8584014E4,9.385133E3,9.198882E3,8.376061E3,1.00907227E3,8.827813E3,3.710687E2,7.3114478E3,1.0646124E3,7.1332654E2,2.9574576E2,8.360794E3,4.6701874E2,3.2471118E2,4.635753E1,6.365609E3,9.458386E2,6.758394E2,3.8877304E2,3.2179077E1,6.8114746E2,7.462796E3,8.979982E2,4.4688382E2,2.0134926E1,2.9966415E2,2.5047014E1,5.441356E3,9.2425287E2,9.2230743E2,2.3531168E1,6.3831537E2,3.7524025E1,6.432999E0,2.5746078E1,6.6234126E3,8.393834E2,3.3267773E2,5.6532043E2,3.8769675E2,5.918706E1,2.6720813E2,3.245605E1,1.9473292E3,3.4940269E3,8.9736646E2,2.6886385E1,6.369483E2,2.8535913E2,8.403323E1,5.5428217E2,6.070289E3,5.5312384E2,7.301724E2,1.0921104E2,2.4774158E2,8.4936165E1,3.381475E2,4.954928E1],"tree_param":{"num_deleted":"0","num_feature":"10","num_nodes":"59","size_leaf_vector":"1"}},{"base_weights":[7.735411E-5,-2.0074205E-1,2.0496114E-1,-2.718039E-1,3.888002E-1,2.536668E-1,-9.5227206E-1,-3.4832758E-1,2.53568E-1,4.5065847E-1,2.38606E-3,2.093137E-1,1.0463694E0,-1.0640993E0,-1.6386084E-3,-4.1181356E-1,7.8853995E-2,2.8610002E-2,6.4370045E-3,7.040467E-1,4.3767644E-3,1.6519411E-1,5.754801E-1,1.0948374E0,-2.9067157E-4,-1.0348684E0,-1.3608211E-2,-4.7516763E-1,-3.8795263E-2,5.2141976E-2,1.0821084E-2,-1.4850217E-2,7.4948054E-3,1.0343675E-2,5.8596707E-3,1.2135162E-1,5.10676E-1,4.6497962E-1,6.3958257E-3,1.0472708E0,1.3840345E-2,-1.052535E-2,-8.623306E-3,-4.8957113E-3,3.1706663E-3,-6.3368585E-4,7.546493E-3,4.045225E-4,7.800226E-4,-9.7557704E-4,-2.1581609E-5,1.4499774E-3,-1.3794694E-3,4.614181E-3,8.329808E-3,4.1381167E-3,6.0770004E-3,1.0775055E-2,8.237829E-3],"categories":[],"categories_nodes":[],"categories_segments":[],"categories_sizes":[],"default_left":[0,0,0,0,0,0,0,0,0,0,0,0,0,0,0,0,0,0,0,0,0,0,0,0,0,0,0,0,0,0,0,0,0,0,0,0,0,0,0,0,0,0,0,0,0,0,0,0,0,0,0,0,0,0,0,0,0,0,0],"id":18,"left_children":[1,3,5,7,9,11,13,15,17,19,-1,21,23,25,-1,27,29,31,-1,33,-1,35,37,39,-1,41,-1,43,45,47,-1,49,-1,-1,-1,51,53,55,-1,57,-1,-1,-1,-1,-1,-1,-1,-1,-1,-1,-1,-1,-1,-1,-1,-1,-1,-1,-1],"loss_changes":[7.645856E2,3.9326044E2,5.1869556E2,3.3681598E2,9.27533E0,3.1015015E2,3.2598175E1,1.9831177E2,9.34878E1,2.0411835E0,0E0,1.3498007E2,2.4399933E1,1.4137268E0,0E0,1.504093E2,2.5317078E1,2.1215302E1,0E0,6.874275E-1,0E0,1.1298512E2,6.06839E0,4.704529E0,0E0,7.93457E-3,0E0,6.224353E1,1.8087648E1,2.7595925E-1,0E0,6.708959E-1,0E0,0E0,0E0,4.0636154E1,1.2954086E1,2.1847534E0,0E0,1.736084E0,0E0,0E0,0E0,0E0,0E0,0E0,0E0,0E0,0E0,0E0,0E0,0E0,0E0,0E0,0E0,0E0,0E0,0E0,0E0],"parents":[2147483647,0,0,1,1,2,2,3,3,4,4,5,5,6,6,7,7,8,8,9,9,11,11,12,12,13,13,15,15,16,16,17,17,19,19,21,21,22,22,23,23,25,25,27,27,28,28,29,29,31,31,35,35,36,36,37,37,39,39],"right_children":[2,4,6,8,10,12,14,16,18,20,-1,22,24,26,-1,28,30,32,-1,34,-1,36,38,40,-1,42,-1,44,46,48,-1,50,-1,-1,-1,52,54,56,-1,58,-1,-1,-1,-1,-1,-1,-1,-1,-1,-1,-1,-1,-1,-1,-1,-1,-1,-1,-1],"split_conditions":[1E0,1E0,1E0,1E0,1E0,1E0,1E0,1E0,1E0,1E0,2.38606E-3,1E0,1E0,1E0,-1.6386084E-3,1E0,1E0,1E0,6.4370045E-3,1E0,4.3767644E-3,1E0,1E0,1E0,-2.9067157E-4,1E0,-1.3608211E-2,1E0,1E0,1E0,1.0821084E-2,1E0,7.4948054E-3,1.0343675E-2,5.8596707E-3,1E0,1E0,1E0,6.3958257E-3,1E0,1.3840345E-2,-1.052535E-2,-8.623306E-3,-4.8957113E-3,3.1706663E-3,-6.3368585E-4,7.546493E-3,4.045225E-4,7.800226E-4,-9.7557704E-4,-2.1581609E-5,1.4499774E-3,-1.3794694E-3,4.614181E-3,8.329808E-3,4.1381167E-3,6.0770004E-3,1.0775055E-2,8.237829E-3],"split_indices":[5,1,9,4,8,0,1,2,8,3,0,1,6,7,0,7,0,0,0,0,0,4,3,2,0,2,0,0,0,8,0,3,0,0,0,6,8,8,0,1,0,0,0,0,0,0,0,0,0,0,0,0,0,0,0,0,0,0,0],"split_type":[0,0,0,0,0,0,0,0,0,0,0,0,0,0,0,0,0,0,0,0,0,0,0,0,0,0,0,0,0,0,0,0,0,0,0,0,0,0,0,0,0,0,0,0,0,0,0,0,0,0,0,0,0,0,0,0,0,0,0],"sum_hessian":[1.8580873E4,9.38352E3,9.197354E3,8.374605E3,1.0089137E3,8.826639E3,3.7071484E2,7.310171E3,1.0644349E3,7.131844E2,2.9572934E2,8.360139E3,4.6650006E2,3.2435855E2,4.635631E1,6.364362E3,9.4580945E2,6.7581824E2,3.8861664E2,3.2163967E1,6.810204E2,7.462437E3,8.9770184E2,4.4636514E2,2.013491E1,2.993557E2,2.5002838E1,5.440127E3,9.242345E2,9.223047E2,2.3504738E1,6.3831464E2,3.7503643E1,6.426452E0,2.5737516E1,6.6232783E3,8.391588E2,3.32606E2,5.650959E2,3.8728622E2,5.907893E1,2.6692407E2,3.243164E1,5.3433623E3,9.676487E1,8.973629E2,2.6871593E1,6.3694727E2,2.8535742E2,8.403247E1,5.5428217E2,6.0701646E3,5.531136E2,7.3002106E2,1.09137726E2,2.4770027E2,8.490572E1,3.3776944E2,4.9516785E1],"tree_param":{"num_deleted":"0","num_feature":"10","num_nodes":"59","size_leaf_vector":"1"}},{"base_weights":[8.0904974E-5,-1.9876485E-1,2.0294985E-1,-2.6913133E-1,3.8499832E-1,2.5117236E-1,-9.4378287E-1,-3.4490523E-1,2.5108856E-1,4.462739E-1,2.362414E-3,2.0724112E-1,1.0371802E0,-1.0547558E0,-1.6226106E-3,-4.0777853E-1,7.8080796E-2,2.8334364E-2,6.375481E-3,6.978281E-1,4.3339077E-3,1.6355209E-1,5.699406E-1,1.0852796E0,-2.8790228E-4,-1.025686E0,-1.35013815E-2,-4.705278E-1,-3.8400717E-2,5.162199E-2,1.0729407E-2,-1.4703493E-2,7.425922E-3,1.0263655E-2,5.805211E-3,1.2014052E-1,5.0572634E-1,4.6046406E-1,6.3346126E-3,1.0379956E0,1.3730113E-2,-1.0432069E-2,-8.546171E-3,-3.2749274E-3,-5.501462E-3,-6.273602E-4,7.4778907E-3,4.0048338E-4,7.722562E-4,-9.659461E-4,-2.136834E-5,1.4355093E-3,-1.3657273E-3,4.5690923E-3,8.253017E-3,4.097614E-3,6.0191685E-3,1.0680094E-2,8.162578E-3],"categories":[],"categories_nodes":[],"categories_segments":[],"categories_sizes":[],"default_left":[0,0,0,0,0,0,0,0,0,0,0,0,0,0,0,0,0,0,0,0,0,0,0,0,0,0,0,0,0,0,0,0,0,0,0,0,0,0,0,0,0,0,0,0,0,0,0,0,0,0,0,0,0,0,0,0,0,0,0],"id":19,"left_children":[1,3,5,7,9,11,13,15,17,19,-1,21,23,25,-1,27,29,31,-1,33,-1,35,37,39,-1,41,-1,43,45,47,-1,49,-1,-1,-1,51,53,55,-1,57,-1,-1,-1,-1,-1,-1,-1,-1,-1,-1,-1,-1,-1,-1,-1,-1,-1,-1,-1],"loss_changes":[7.4949414E2,3.8552582E2,5.0880273E2,3.301856E2,9.098602E0,3.045639E2,3.203485E1,1.9443341E2,9.1684494E1,2.0116272E0,0E0,1.3238654E2,2.397345E1,1.4058228E0,0E0,1.4748938E2,2.486649E1,2.0815718E1,0E0,6.8169594E-1,0E0,1.1079796E2,5.9557495E0,4.6538696E0,0E0,7.751465E-3,0E0,6.177002E1,1.7748293E1,2.705071E-1,0E0,6.577101E-1,0E0,0E0,0E0,3.98291E1,1.2726349E1,2.1454544E0,0E0,1.7095032E0,0E0,0E0,0E0,0E0,0E0,0E0,0E0,0E0,0E0,0E0,0E0,0E0,0E0,0E0,0E0,0E0,0E0,0E0,0E0],"parents":[2147483647,0,0,1,1,2,2,3,3,4,4,5,5,6,6,7,7,8,8,9,9,11,11,12,12,13,13,15,15,16,16,17,17,19,19,21,21,22,22,23,23,25,25,27,27,28,28,29,29,31,31,35,35,36,36,37,37,39,39],"right_children":[2,4,6,8,10,12,14,16,18,20,-1,22,24,26,-1,28,30,32,-1,34,-1,36,38,40,-1,42,-1,44,46,48,-1,50,-1,-1,-1,52,54,56,-1,58,-1,-1,-1,-1,-1,-1,-1,-1,-1,-1,-1,-1,-1,-1,-1,-1,-1,-1,-1],"split_conditions":[1E0,1E0,1E0,1E0,1E0,1E0,1E0,1E0,1E0,1E0,2.362414E-3,1E0,1E0,1E0,-1.6226106E-3,1E0,1E0,1E0,6.375481E-3,1E0,4.3339077E-3,1E0,1E0,1E0,-2.8790228E-4,1E0,-1.35013815E-2,1E0,1E0,1E0,1.0729407E-2,1E0,7.425922E-3,1.0263655E-2,5.805211E-3,1E0,1E0,1E0,6.3346126E-3,1E0,1.3730113E-2,-1.0432069E-2,-8.546171E-3,-3.2749274E-3,-5.501462E-3,-6.273602E-4,7.4778907E-3,4.0048338E-4,7.722562E-4,-9.659461E-4,-2.136834E-5,1.4355093E-3,-1.3657273E-3,4.5690923E-3,8.253017E-3,4.097614E-3,6.0191685E-3,1.0680094E-2,8.162578E-3],"split_indices":[5,1,9,4,8,0,1,2,8,3,0,1,6,7,0,7,0,0,0,0,0,4,3,2,0,2,0,3,0,8,0,3,0,0,0,6,8,8,0,1,0,0,0,0,0,0,0,0,0,0,0,0,0,0,0,0,0,0,0],"split_type":[0,0,0,0,0,0,0,0,0,0,0,0,0,0,0,0,0,0,0,0,0,0,0,0,0,0,0,0,0,0,0,0,0,0,0,0,0,0,0,0,0,0,0,0,0,0,0,0,0,0,0,0,0,0,0,0,0,0,0],"sum_hessian":[1.85776E4,9.381838E3,9.195762E3,8.373089E3,1.00874854E3,8.825416E3,3.703463E2,7.3088394E3,1.0642499E3,7.130363E2,2.9571222E2,8.359456E3,4.6595984E2,3.2399127E2,4.6355053E1,6.3630605E3,9.4577905E2,6.757962E2,3.884537E2,3.214822E1,6.8088806E2,7.4620625E3,8.973932E2,4.4582495E2,2.0134893E1,2.9903445E2,2.4956808E1,5.438845E3,9.242154E2,9.223019E2,2.3477196E1,6.383138E2,3.7482407E1,6.419621E0,2.5728598E1,6.6231377E3,8.389248E2,3.3253128E2,5.6486194E2,3.8685864E2,5.8966297E1,2.6662817E2,3.2406265E1,1.9466993E3,3.4921458E3,8.973592E2,2.6856182E1,6.3694617E2,2.8535568E2,8.403165E1,5.5428217E2,6.070035E3,5.531028E2,7.2986346E2,1.0906137E2,2.4765726E2,8.487401E1,3.3737573E2,4.948293E1],"tree_param":{"num_deleted":"0","num_feature":"10","num_nodes":"59","size_leaf_vector":"1"}},{"base_weights":[8.405806E-5,-1.9680916E-1,2.0095971E-1,-2.6648766E-1,3.8123605E-1,2.4870391E-1,-9.354066E-1,-3.4151977E-1,2.4863513E-1,4.4193545E-1,2.3390108E-3,2.0518978E-1,1.0281193E0,-1.0455416E0,-1.606775E-3,-4.0378717E-1,7.731523E-2,2.806167E-2,6.314646E-3,6.916779E-1,4.2915014E-3,1.6192676E-1,5.64462E-1,1.0758574E0,-2.8515904E-4,-1.0166286E0,-1.3396374E-2,-4.6593863E-1,-3.8009975E-2,5.1107146E-2,1.0638994E-2,-1.4557931E-2,7.3578293E-3,1.0184654E-2,5.751333E-3,1.1894167E-1,5.0083005E-1,4.5599657E-1,6.274084E-3,1.0288479E0,1.3621808E-2,-1.0340073E-2,-8.469968E-3,-4.8018387E-3,3.1716982E-3,-6.2109536E-4,7.410077E-3,3.9648506E-4,7.645646E-4,-9.5640984E-4,-2.1153988E-5,1.4211872E-3,-1.3521204E-3,4.5244824E-3,8.177157E-3,4.057536E-3,5.9619793E-3,1.0586464E-2,8.08823E-3],"categories":[],"categories_nodes":[],"categories_segments":[],"categories_sizes":[],"default_left":[0,0,0,0,0,0,0,0,0,0,0,0,0,0,0,0,0,0,0,0,0,0,0,0,0,0,0,0,0,0,0,0,0,0,0,0,0,0,0,0,0,0,0,0,0,0,0,0,0,0,0,0,0,0,0,0,0,0,0],"id":20,"left_children":[1,3,5,7,9,11,13,15,17,19,-1,21,23,25,-1,27,29,31,-1,33,-1,35,37,39,-1,41,-1,43,45,47,-1,49,-1,-1,-1,51,53,55,-1,57,-1,-1,-1,-1,-1,-1,-1,-1,-1,-1,-1,-1,-1,-1,-1,-1,-1,-1,-1],"loss_changes":[7.347084E2,3.779469E2,4.9911234E2,3.236889E2,8.925415E0,2.9909906E2,3.1484375E1,1.9063416E2,8.9917915E1,1.9826202E0,0E0,1.2984573E2,2.3556671E1,1.398346E0,0E0,1.4462952E2,2.4425186E1,2.0424088E1,0E0,6.760845E-1,0E0,1.08655075E2,5.84552E0,4.6051636E0,0E0,7.659912E-3,0E0,6.082202E1,1.7415636E1,2.6515818E-1,0E0,6.447868E-1,0E0,0E0,0E0,3.9038063E1,1.2503586E1,2.106987E0,0E0,1.6838074E0,0E0,0E0,0E0,0E0,0E0,0E0,0E0,0E0,0E0,0E0,0E0,0E0,0E0,0E0,0E0,0E0,0E0,0E0,0E0],"parents":[2147483647,0,0,1,1,2,2,3,3,4,4,5,5,6,6,7,7,8,8,9,9,11,11,12,12,13,13,15,15,16,16,17,17,19,19,21,21,22,22,23,23,25,25,27,27,28,28,29,29,31,31,35,35,36,36,37,37,39,39],"right_children":[2,4,6,8,10,12,14,16,18,20,-1,22,24,26,-1,28,30,32,-1,34,-1,36,38,40,-1,42,-1,44,46,48,-1,50,-1,-1,-1,52,54,56,-1,58,-1,-1,-1,-1,-1,-1,-1,-1,-1,-1,-1,-1,-1,-1,-1,-1,-1,-1,-1],"split_conditions":[1E0,1E0,1E0,1E0,1E0,1E0,1E0,1E0,1E0,1E0,2.3390108E-3,1E0,1E0,1E0,-1.606775E-3,1E0,1E0,1E0,6.314646E-3,1E0,4.2915014E-3,1E0,1E0,1E0,-2.8515904E-4,1E0,-1.3396374E-2,1E0,1E0,1E0,1.0638994E-2,1E0,7.3578293E-3,1.0184654E-2,5.751333E-3,1E0,1E0,1E0,6.274084E-3,1E0,1.3621808E-2,-1.0340073E-2,-8.469968E-3,-4.8018387E-3,3.1716982E-3,-6.2109536E-4,7.410077E-3,3.9648506E-4,7.645646E-4,-9.5640984E-4,-2.1153988E-5,1.4211872E-3,-1.3521204E-3,4.5244824E-3,8.177157E-3,4.057536E-3,5.9619793E-3,1.0586464E-2,8.08823E-3],"split_indices":[5,1,9,4,8,0,1,2,8,3,0,1,6,7,0,7,0,0,0,0,0,4,3,2,0,2,0,0,0,8,0,3,0,0,0,6,8,8,0,1,0,0,0,0,0,0,0,0,0,0,0,0,0,0,0,0,0,0,0],"split_type":[0,0,0,0,0,0,0,0,0,0,0,0,0,0,0,0,0,0,0,0,0,0,0,0,0,0,0,0,0,0,0,0,0,0,0,0,0,0,0,0,0,0,0,0,0,0,0,0,0,0,0,0,0,0,0,0,0,0,0],"sum_hessian":[1.8574201E4,9.380093E3,9.194108E3,8.371516E3,1.00857697E3,8.824145E3,3.699635E2,7.307458E3,1.0640577E3,7.128825E2,2.9569446E2,8.358746E3,4.6539883E2,3.2360977E2,4.635374E1,6.3617104E3,9.457475E2,6.757733E2,3.882845E2,3.2131847E1,6.807507E2,7.4616733E3,8.970727E2,4.4526395E2,2.0134876E1,2.9870078E2,2.4908989E1,5.4375146E3,9.241957E2,9.2229895E2,2.3448582E1,6.383129E2,3.7460342E1,6.4125147E0,2.5719332E1,6.6229917E3,8.386818E2,3.3245364E2,5.64619E2,3.8641464E2,5.884932E1,2.6632083E2,3.237996E1,5.34075E3,9.676485E1,8.9735547E2,2.684017E1,6.3694507E2,2.8535382E2,8.4030815E1,5.5428217E2,6.0699E3,5.5309174E2,7.2969977E2,1.0898208E2,2.4761258E2,8.4841064E1,3.3696686E2,4.9447765E1],"tree_param":{"num_deleted":"0","num_feature":"10","num_nodes":"59","size_leaf_vector":"1"}},{"base_weights":[8.760525E-5,-1.9487324E-1,1.989905E-1,-2.638709E-1,3.7751293E-1,2.4626112E-1,-9.271401E-1,-3.3816886E-1,2.4620716E-1,4.3764263E-1,2.3158449E-3,2.0315947E-1,1.0191834E0,-1.0364534E0,-1.5910906E-3,-3.9983684E-1,7.655736E-2,2.7791476E-2,6.25449E-3,6.855954E-1,4.2495416E-3,1.6031803E-1,5.590432E-1,1.0665671E0,-2.8244173E-4,-1.0076927E0,-1.3293128E-2,-4.61397E-1,-3.7623473E-2,5.0597508E-2,1.0549814E-2,-1.4414016E-2,7.29052E-3,1.0106651E-2,5.69803E-3,1.1775503E-1,4.959864E-1,4.5157617E-1,6.2142317E-3,1.0198244E0,1.351537E-2,-1.0249325E-2,-8.394684E-3,-3.1992868E-3,-5.4016286E-3,-6.148957E-4,7.3430357E-3,3.925265E-4,7.5695245E-4,-9.4696786E-4,-2.0944184E-5,1.4070108E-3,-1.3386513E-3,4.4803447E-3,8.102209E-3,4.0178765E-3,5.9054117E-3,1.0494127E-2,8.01477E-3],"categories":[],"categories_nodes":[],"categories_segments":[],"categories_sizes":[],"default_left":[0,0,0,0,0,0,0,0,0,0,0,0,0,0,0,0,0,0,0,0,0,0,0,0,0,0,0,0,0,0,0,0,0,0,0,0,0,0,0,0,0,0,0,0,0,0,0,0,0,0,0,0,0,0,0,0,0,0,0],"id":21,"left_children":[1,3,5,7,9,11,13,15,17,19,-1,21,23,25,-1,27,29,31,-1,33,-1,35,37,39,-1,41,-1,43,45,47,-1,49,-1,-1,-1,51,53,55,-1,57,-1,-1,-1,-1,-1,-1,-1,-1,-1,-1,-1,-1,-1,-1,-1,-1,-1,-1,-1],"loss_changes":[7.2021655E2,3.7051843E2,4.8961942E2,3.1732104E2,8.755753E0,2.9375195E2,3.0946411E1,1.8691022E2,8.8187386E1,1.9541321E0,0E0,1.2735663E2,2.3149048E1,1.3912354E0,0E0,1.418266E2,2.3992943E1,2.0040295E1,0E0,6.705828E-1,0E0,1.06555435E2,5.737671E0,4.5582886E0,0E0,7.7819824E-3,0E0,6.0412476E1,1.7089552E1,2.5991893E-1,0E0,6.321143E-1,0E0,0E0,0E0,3.8262856E1,1.228566E1,2.0692825E0,0E0,1.6588745E0,0E0,0E0,0E0,0E0,0E0,0E0,0E0,0E0,0E0,0E0,0E0,0E0,0E0,0E0,0E0,0E0,0E0,0E0,0E0],"parents":[2147483647,0,0,1,1,2,2,3,3,4,4,5,5,6,6,7,7,8,8,9,9,11,11,12,12,13,13,15,15,16,16,17,17,19,19,21,21,22,22,23,23,25,25,27,27,28,28,29,29,31,31,35,35,36,36,37,37,39,39],"right_children":[2,4,6,8,10,12,14,16,18,20,-1,22,24,26,-1,28,30,32,-1,34,-1,36,38,40,-1,42,-1,44,46,48,-1,50,-1,-1,-1,52,54,56,-1,58,-1,-1,-1,-1,-1,-1,-1,-1,-1,-1,-1,-1,-1,-1,-1,-1,-1,-1,-1],"split_conditions":[1E0,1E0,1E0,1E0,1E0,1E0,1E0,1E0,1E0,1E0,2.3158449E-3,1E0,1E0,1E0,-1.5910906E-3,1E0,1E0,1E0,6.25449E-3,1E0,4.2495416E-3,1E0,1E0,1E0,-2.8244173E-4,1E0,-1.3293128E-2,1E0,1E0,1E0,1.0549814E-2,1E0,7.29052E-3,1.0106651E-2,5.69803E-3,1E0,1E0,1E0,6.2142317E-3,1E0,1.351537E-2,-1.0249325E-2,-8.394684E-3,-3.1992868E-3,-5.4016286E-3,-6.148957E-4,7.3430357E-3,3.925265E-4,7.5695245E-4,-9.4696786E-4,-2.0944184E-5,1.4070108E-3,-1.3386513E-3,4.4803447E-3,8.102209E-3,4.0178765E-3,5.9054117E-3,1.0494127E-2,8.01477E-3],"split_indices":[5,1,9,4,8,0,1,2,8,3,0,1,6,7,0,7,0,0,0,0,0,4,3,2,0,2,0,3,0,8,0,3,0,0,0,6,8,8,0,1,0,0,0,0,0,0,0,0,0,0,0,0,0,0,0,0,0,0,0],"split_type":[0,0,0,0,0,0,0,0,0,0,0,0,0,0,0,0,0,0,0,0,0,0,0,0,0,0,0,0,0,0,0,0,0,0,0,0,0,0,0,0,0,0,0,0,0,0,0,0,0,0,0,0,0,0,0,0,0,0,0],"sum_hessian":[1.8570682E4,9.378284E3,9.192396E3,8.369885E3,1.0083993E3,8.822829E3,3.6956705E2,7.3060264E3,1.0638588E3,7.127232E2,2.956761E2,8.358012E3,4.6481772E2,3.2321466E2,4.6352383E1,6.3603115E3,9.4571484E2,6.757496E2,3.8810925E2,3.211487E1,6.8060834E2,7.461271E3,8.9674066E2,4.4468286E2,2.0134855E1,2.9835522E2,2.4859438E1,5.436136E3,9.241751E2,9.222959E2,2.3418932E1,6.383121E2,3.7437485E1,6.4051414E0,2.5709726E1,6.6228413E3,8.384302E2,3.3237323E2,5.643674E2,3.859547E2,5.8728146E1,2.6600247E2,3.2352757E1,1.9460219E3,3.4901145E3,8.973515E2,2.6823578E1,6.36944E2,2.8535193E2,8.402993E1,5.5428217E2,6.0697607E3,5.5308026E2,7.295302E2,1.0889993E2,2.475663E2,8.4806946E1,3.365434E2,4.9411335E1],"tree_param":{"num_deleted":"0","num_feature":"10","num_nodes":"59","size_leaf_vector":"1"}},{"base_weights":[9.055829E-5,-1.9295849E-1,1.9704168E-1,-2.612825E-1,3.7382835E-1,2.4384342E-1,-9.1898125E-1,-3.3485416E-1,2.4380468E-1,4.333948E-1,2.2929127E-3,2.011497E-1,1.0103693E0,-1.0274882E0,-1.5755623E-3,-3.959294E-1,7.580705E-2,2.752406E-2,6.195005E-3,6.795792E-1,4.208021E-3,1.5872538E-1,5.536835E-1,1.0574052E0,-2.7975312E-4,-9.98876E-1,-1.3191599E-2,-4.5690507E-1,-3.7240963E-2,5.0092973E-2,1.0461837E-2,-1.4271373E-2,7.2239735E-3,1.0029622E-2,5.6452933E-3,1.16580114E-1,4.9119452E-1,4.4720227E-1,6.155045E-3,1.010922E0,1.3410735E-2,-1.0159801E-2,-8.320291E-3,-4.7099455E-3,3.1719734E-3,-6.0875854E-4,7.276753E-3,3.8860875E-4,7.4941386E-4,-9.376215E-4,-2.0734378E-5,1.3929749E-3,-1.3253178E-3,4.4366713E-3,8.028156E-3,3.97863E-3,5.84946E-3,1.0403052E-2,7.942172E-3],"categories":[],"categories_nodes":[],"categories_segments":[],"categories_sizes":[],"default_left":[0,0,0,0,0,0,0,0,0,0,0,0,0,0,0,0,0,0,0,0,0,0,0,0,0,0,0,0,0,0,0,0,0,0,0,0,0,0,0,0,0,0,0,0,0,0,0,0,0,0,0,0,0,0,0,0,0,0,0],"id":22,"left_children":[1,3,5,7,9,11,13,15,17,19,-1,21,23,25,-1,27,29,31,-1,33,-1,35,37,39,-1,41,-1,43,45,47,-1,49,-1,-1,-1,51,53,55,-1,57,-1,-1,-1,-1,-1,-1,-1,-1,-1,-1,-1,-1,-1,-1,-1,-1,-1,-1,-1],"loss_changes":[7.060178E2,3.6323947E2,4.8031958E2,3.1108203E2,8.589523E0,2.885194E2,3.042044E1,1.832622E2,8.649211E1,1.9261475E0,0E0,1.2491824E2,2.275061E1,1.384613E0,0E0,1.3908118E2,2.3569504E1,1.9664118E1,0E0,6.6518974E-1,0E0,1.04498245E2,5.63208E0,4.5130615E0,0E0,7.965088E-3,0E0,5.9435303E1,1.676989E1,2.5477886E-1,0E0,6.196967E-1,0E0,0E0,0E0,3.7502983E1,1.2072372E1,2.032364E0,0E0,1.6346741E0,0E0,0E0,0E0,0E0,0E0,0E0,0E0,0E0,0E0,0E0,0E0,0E0,0E0,0E0,0E0,0E0,0E0,0E0,0E0],"parents":[2147483647,0,0,1,1,2,2,3,3,4,4,5,5,6,6,7,7,8,8,9,9,11,11,12,12,13,13,15,15,16,16,17,17,19,19,21,21,22,22,23,23,25,25,27,27,28,28,29,29,31,31,35,35,36,36,37,37,39,39],"right_children":[2,4,6,8,10,12,14,16,18,20,-1,22,24,26,-1,28,30,32,-1,34,-1,36,38,40,-1,42,-1,44,46,48,-1,50,-1,-1,-1,52,54,56,-1,58,-1,-1,-1,-1,-1,-1,-1,-1,-1,-1,-1,-1,-1,-1,-1,-1,-1,-1,-1],"split_conditions":[1E0,1E0,1E0,1E0,1E0,1E0,1E0,1E0,1E0,1E0,2.2929127E-3,1E0,1E0,1E0,-1.5755623E-3,1E0,1E0,1E0,6.195005E-3,1E0,4.208021E-3,1E0,1E0,1E0,-2.7975312E-4,1E0,-1.3191599E-2,1E0,1E0,1E0,1.0461837E-2,1E0,7.2239735E-3,1.0029622E-2,5.6452933E-3,1E0,1E0,1E0,6.155045E-3,1E0,1.3410735E-2,-1.0159801E-2,-8.320291E-3,-4.7099455E-3,3.1719734E-3,-6.0875854E-4,7.276753E-3,3.8860875E-4,7.4941386E-4,-9.376215E-4,-2.0734378E-5,1.3929749E-3,-1.3253178E-3,4.4366713E-3,8.028156E-3,3.97863E-3,5.84946E-3,1.0403052E-2,7.942172E-3],"split_indices":[5,1,9,4,8,0,1,2,8,3,0,1,6,7,0,7,0,0,0,0,0,4,3,2,0,2,0,0,0,8,0,3,0,0,0,6,8,8,0,1,0,0,0,0,0,0,0,0,0,0,0,0,0,0,0,0,0,0,0],"split_type":[0,0,0,0,0,0,0,0,0,0,0,0,0,0,0,0,0,0,0,0,0,0,0,0,0,0,0,0,0,0,0,0,0,0,0,0,0,0,0,0,0,0,0,0,0,0,0,0,0,0,0,0,0,0,0,0,0,0,0],"sum_hessian":[1.8567043E4,9.376416E3,9.190627E3,8.3682E3,1.00821564E3,8.82147E3,3.691573E2,7.3045474E3,1.0636532E3,7.1255853E2,2.9565707E2,8.357253E3,4.6421725E2,3.2280634E2,4.6350975E1,6.358866E3,9.45681E2,6.7572504E2,3.8792816E2,3.209731E1,6.8046124E2,7.460855E3,8.963975E2,4.440824E2,2.0134836E1,2.979981E2,2.480822E1,5.4347124E3,9.241538E2,9.222928E2,2.3388277E1,6.3831116E2,3.7413857E1,6.3975086E0,2.56998E1,6.622685E3,8.381701E2,3.3229016E2,5.6410736E2,3.854795E2,5.8602913E1,2.6567343E2,3.2324684E1,5.3379473E3,9.676483E1,8.973474E2,2.6806423E1,6.369428E2,2.8534998E2,8.402903E1,5.5428217E2,6.0696167E3,5.5306836E2,7.2935504E2,1.08815056E2,2.4751848E2,8.477168E1,3.361058E2,4.937368E1],"tree_param":{"num_deleted":"0","num_feature":"10","num_nodes":"59","size_leaf_vector":"1"}},{"base_weights":[9.393647E-5,-1.910629E-1,1.9511321E-1,-2.587202E-1,3.7018192E-1,2.4145074E-1,-9.1092676E-1,-3.3157298E-1,2.4142694E-1,4.2919135E-1,2.270212E-3,1.9916047E-1,1.0016737E0,-1.0186423E0,-1.5601899E-3,-3.9206168E-1,7.506418E-2,2.725911E-2,6.136175E-3,6.73628E-1,4.166934E-3,1.5714894E-1,5.4838175E-1,1.0483685E0,-2.7708674E-4,-9.9017435E-1,-1.309173E-2,-4.5245922E-1,-3.6861714E-2,4.9593464E-2,1.0375028E-2,-1.4130304E-2,7.158178E-3,9.953544E-3,5.593111E-3,1.1541714E-1,4.8645377E-1,4.4287413E-1,6.096509E-3,1.0021372E0,1.3307857E-2,-1.0071461E-2,-8.246775E-3,-3.1253262E-3,-5.3038727E-3,-6.02676E-4,7.211214E-3,3.8472962E-4,7.419512E-4,-9.283646E-4,-2.0529014E-5,1.3790813E-3,-1.3121181E-3,4.393457E-3,7.954979E-3,3.9397883E-3,5.7941168E-3,1.0313204E-2,7.870425E-3],"categories":[],"categories_nodes":[],"categories_segments":[],"categories_sizes":[],"default_left":[0,0,0,0,0,0,0,0,0,0,0,0,0,0,0,0,0,0,0,0,0,0,0,0,0,0,0,0,0,0,0,0,0,0,0,0,0,0,0,0,0,0,0,0,0,0,0,0,0,0,0,0,0,0,0,0,0,0,0],"id":23,"left_children":[1,3,5,7,9,11,13,15,17,19,-1,21,23,25,-1,27,29,31,-1,33,-1,35,37,39,-1,41,-1,43,45,47,-1,49,-1,-1,-1,51,53,55,-1,57,-1,-1,-1,-1,-1,-1,-1,-1,-1,-1,-1,-1,-1,-1,-1,-1,-1,-1,-1],"loss_changes":[6.921004E2,3.561047E2,4.7120792E2,3.0496625E2,8.426636E0,2.83398E2,2.9906158E1,1.7968616E2,8.4831184E1,1.8986816E0,0E0,1.2252899E2,2.236081E1,1.3783569E0,0E0,1.3639075E2,2.3154636E1,1.9295404E1,0E0,6.5989876E-1,0E0,1.0248236E2,5.528778E0,4.469513E0,0E0,8.239746E-3,0E0,5.9090332E1,1.6456478E1,2.497418E-1,0E0,6.075159E-1,0E0,0E0,0E0,3.675831E1,1.1863663E1,1.9962082E0,0E0,1.611206E0,0E0,0E0,0E0,0E0,0E0,0E0,0E0,0E0,0E0,0E0,0E0,0E0,0E0,0E0,0E0,0E0,0E0,0E0,0E0],"parents":[2147483647,0,0,1,1,2,2,3,3,4,4,5,5,6,6,7,7,8,8,9,9,11,11,12,12,13,13,15,15,16,16,17,17,19,19,21,21,22,22,23,23,25,25,27,27,28,28,29,29,31,31,35,35,36,36,37,37,39,39],"right_children":[2,4,6,8,10,12,14,16,18,20,-1,22,24,26,-1,28,30,32,-1,34,-1,36,38,40,-1,42,-1,44,46,48,-1,50,-1,-1,-1,52,54,56,-1,58,-1,-1,-1,-1,-1,-1,-1,-1,-1,-1,-1,-1,-1,-1,-1,-1,-1,-1,-1],"split_conditions":[1E0,1E0,1E0,1E0,1E0,1E0,1E0,1E0,1E0,1E0,2.270212E-3,1E0,1E0,1E0,-1.5601899E-3,1E0,1E0,1E0,6.136175E-3,1E0,4.166934E-3,1E0,1E0,1E0,-2.7708674E-4,1E0,-1.309173E-2,1E0,1E0,1E0,1.0375028E-2,1E0,7.158178E-3,9.953544E-3,5.593111E-3,1E0,1E0,1E0,6.096509E-3,1E0,1.3307857E-2,-1.0071461E-2,-8.246775E-3,-3.1253262E-3,-5.3038727E-3,-6.02676E-4,7.211214E-3,3.8472962E-4,7.419512E-4,-9.283646E-4,-2.0529014E-5,1.3790813E-3,-1.3121181E-3,4.393457E-3,7.954979E-3,3.9397883E-3,5.7941168E-3,1.0313204E-2,7.870425E-3],"split_indices":[5,1,9,4,8,0,1,2,8,3,0,1,6,7,0,7,0,0,0,0,0,4,3,2,0,2,0,3,0,8,0,3,0,0,0,6,8,8,0,1,0,0,0,0,0,0,0,0,0,0,0,0,0,0,0,0,0,0,0],"split_type":[0,0,0,0,0,0,0,0,0,0,0,0,0,0,0,0,0,0,0,0,0,0,0,0,0,0,0,0,0,0,0,0,0,0,0,0,0,0,0,0,0,0,0,0,0,0,0,0,0,0,0,0,0,0,0,0,0,0,0],"sum_hessian":[1.8563291E4,9.374489E3,9.188803E3,8.366463E3,1.0080263E3,8.820067E3,3.6873483E2,7.3030215E3,1.063441E3,7.1238885E2,2.9563748E2,8.35647E3,4.6359805E2,3.223853E2,4.6349525E1,6.357375E3,9.456462E2,6.7569965E2,3.8774142E2,3.2079185E1,6.8030963E2,7.460426E3,8.960438E2,4.4346326E2,2.0134819E1,2.976299E2,2.4755384E1,5.433243E3,9.2413196E2,9.222895E2,2.3356655E1,6.383102E2,3.7389484E1,6.3896255E0,2.5689558E1,6.622524E3,8.37902E2,3.3220447E2,5.6383936E2,3.8498947E2,5.847377E1,2.6533414E2,3.2295776E1,1.9453005E3,3.4879429E3,8.973432E2,2.6788729E1,6.369416E2,2.8534796E2,8.402809E1,5.542821E2,6.069468E3,5.53056E2,7.2917444E2,1.0872753E2,2.4746916E2,8.473531E1,3.3565463E2,4.9334846E1],"tree_param":{"num_deleted":"0","num_feature":"10","num_nodes":"59","size_leaf_vector":"1"}},{"base_weights":[9.689576E-5,-1.8918781E-1,1.9320484E-1,-2.5618535E-1,3.6657292E-1,2.3908272E-1,-9.0297455E-1,-3.2832694E-1,2.3907413E-1,4.2503154E-1,2.247738E-3,1.9719154E-1,9.9309355E-1,-1.009913E0,-1.5449642E-3,-3.8823557E-1,7.43287E-2,2.699718E-2,6.0779904E-3,6.677408E-1,4.126274E-3,1.5558848E-1,5.431373E-1,1.0394535E0,-2.7444732E-4,-9.815857E-1,-1.299347E-2,-4.480614E-1,-3.6486972E-2,4.9098942E-2,1.0289356E-2,-1.3990177E-2,7.09312E-3,9.878394E-3,5.5414783E-3,1.1426588E-1,4.8176345E-1,4.385912E-1,6.038618E-3,9.9346745E-1,1.3206676E-2,-9.984281E-3,-8.174117E-3,-4.6199756E-3,3.1715098E-3,-5.9666095E-4,7.1464055E-3,3.8089018E-4,7.345611E-4,-9.1919984E-4,-2.0320398E-5,1.3653276E-3,-1.2990503E-3,4.3506967E-3,7.882658E-3,3.9013491E-3,5.7393694E-3,1.0224549E-2,7.7995085E-3],"categories":[],"categories_nodes":[],"categories_segments":[],"categories_sizes":[],"default_left":[0,0,0,0,0,0,0,0,0,0,0,0,0,0,0,0,0,0,0,0,0,0,0,0,0,0,0,0,0,0,0,0,0,0,0,0,0,0,0,0,0,0,0,0,0,0,0,0,0,0,0,0,0,0,0,0,0,0,0],"id":24,"left_children":[1,3,5,7,9,11,13,15,17,19,-1,21,23,25,-1,27,29,31,-1,33,-1,35,37,39,-1,41,-1,43,45,47,-1,49,-1,-1,-1,51,53,55,-1,57,-1,-1,-1,-1,-1,-1,-1,-1,-1,-1,-1,-1,-1,-1,-1,-1,-1,-1,-1],"loss_changes":[6.784645E2,3.491127E2,4.6228036E2,2.9897406E2,8.267029E0,2.783844E2,2.9403137E1,1.7618256E2,8.3203766E1,1.8716736E0,0E0,1.2018796E2,2.1979523E1,1.3724365E0,0E0,1.3375482E2,2.274812E1,1.8933971E1,0E0,6.547022E-1,0E0,1.0050708E2,5.4277344E0,4.4275208E0,0E0,8.544922E-3,0E0,5.8081787E1,1.6149235E1,2.4480009E-1,0E0,5.955826E-1,0E0,0E0,0E0,3.602845E1,1.1659241E1,1.9607849E0,0E0,1.5883789E0,0E0,0E0,0E0,0E0,0E0,0E0,0E0,0E0,0E0,0E0,0E0,0E0,0E0,0E0,0E0,0E0,0E0,0E0,0E0],"parents":[2147483647,0,0,1,1,2,2,3,3,4,4,5,5,6,6,7,7,8,8,9,9,11,11,12,12,13,13,15,15,16,16,17,17,19,19,21,21,22,22,23,23,25,25,27,27,28,28,29,29,31,31,35,35,36,36,37,37,39,39],"right_children":[2,4,6,8,10,12,14,16,18,20,-1,22,24,26,-1,28,30,32,-1,34,-1,36,38,40,-1,42,-1,44,46,48,-1,50,-1,-1,-1,52,54,56,-1,58,-1,-1,-1,-1,-1,-1,-1,-1,-1,-1,-1,-1,-1,-1,-1,-1,-1,-1,-1],"split_conditions":[1E0,1E0,1E0,1E0,1E0,1E0,1E0,1E0,1E0,1E0,2.247738E-3,1E0,1E0,1E0,-1.5449642E-3,1E0,1E0,1E0,6.0779904E-3,1E0,4.126274E-3,1E0,1E0,1E0,-2.7444732E-4,1E0,-1.299347E-2,1E0,1E0,1E0,1.0289356E-2,1E0,7.09312E-3,9.878394E-3,5.5414783E-3,1E0,1E0,1E0,6.038618E-3,1E0,1.3206676E-2,-9.984281E-3,-8.174117E-3,-4.6199756E-3,3.1715098E-3,-5.9666095E-4,7.1464055E-3,3.8089018E-4,7.345611E-4,-9.1919984E-4,-2.0320398E-5,1.3653276E-3,-1.2990503E-3,4.3506967E-3,7.882658E-3,3.9013491E-3,5.7393694E-3,1.0224549E-2,7.7995085E-3],"split_indices":[5,1,9,4,8,0,1,2,8,3,0,1,6,7,0,7,0,0,0,0,0,4,3,2,0,2,0,0,0,8,0,3,0,0,0,6,8,8,0,1,0,0,0,0,0,0,0,0,0,0,0,0,0,0,0,0,0,0,0],"split_type":[0,0,0,0,0,0,0,0,0,0,0,0,0,0,0,0,0,0,0,0,0,0,0,0,0,0,0,0,0,0,0,0,0,0,0,0,0,0,0,0,0,0,0,0,0,0,0,0,0,0,0,0,0,0,0,0,0,0,0],"sum_hessian":[1.8559432E4,9.372506E3,9.186925E3,8.364675E3,1.0078314E3,8.818625E3,3.6830002E2,7.3014517E3,1.063223E3,7.122141E2,2.956173E2,8.355664E3,4.629609E2,3.21952E2,4.634804E1,6.3558413E3,9.456103E2,6.756737E2,3.8754932E2,3.2060513E1,6.801536E2,7.4599844E3,8.956798E2,4.428261E2,2.0134796E1,2.9725098E2,2.4700998E1,5.431732E3,9.2410944E2,9.222862E2,2.3324102E1,6.3830927E2,3.7364403E1,6.3815E0,2.5679014E1,6.6223584E3,8.3762604E2,3.3211633E2,5.635635E2,3.8448523E2,5.834086E1,2.6498492E2,3.2266056E1,5.334967E3,9.676485E1,8.973389E2,2.677051E1,6.369403E2,2.853459E2,8.4027145E1,5.5428217E2,6.069315E3,5.530435E2,7.289886E2,1.0863745E2,2.4741843E2,8.46979E1,3.3519037E2,4.9294876E1],"tree_param":{"num_deleted":"0","num_feature":"10","num_nodes":"59","size_leaf_vector":"1"}},{"base_weights":[1.0009882E-4,-1.8733148E-1,1.9131602E-1,-2.536761E-1,3.6300138E-1,2.3673886E-1,-8.9512205E-1,-3.2511365E-1,2.3674522E-1,4.2091522E-1,2.2254938E-3,1.9524242E-1,9.8462564E-1,-1.0012975E0,-1.5298885E-3,-3.8444826E-1,7.360042E-2,2.6737217E-2,6.0204407E-3,6.619161E-1,4.0860395E-3,1.5404361E-1,5.379487E-1,1.0306569E0,-2.7183237E-4,-9.731071E-1,-1.2896776E-2,-4.437085E-1,-3.6115956E-2,4.860925E-2,1.02048E-2,-1.3852062E-2,7.028784E-3,9.804155E-3,5.4903785E-3,1.1312603E-1,4.7712255E-1,4.3435302E-1,5.9813536E-3,9.849094E-1,1.3107146E-2,-9.89823E-3,-8.102297E-3,-3.0529976E-3,-5.2081305E-3,-5.907049E-4,7.0823133E-3,3.7708704E-4,7.272458E-4,-9.101278E-4,-2.012077E-5,1.3517106E-3,-1.286115E-3,4.3083816E-3,7.8111747E-3,3.8633076E-3,5.6852093E-3,1.0137057E-2,7.7294093E-3],"categories":[],"categories_nodes":[],"categories_segments":[],"categories_sizes":[],"default_left":[0,0,0,0,0,0,0,0,0,0,0,0,0,0,0,0,0,0,0,0,0,0,0,0,0,0,0,0,0,0,0,0,0,0,0,0,0,0,0,0,0,0,0,0,0,0,0,0,0,0,0,0,0,0,0,0,0,0,0],"id":25,"left_children":[1,3,5,7,9,11,13,15,17,19,-1,21,23,25,-1,27,29,31,-1,33,-1,35,37,39,-1,41,-1,43,45,47,-1,49,-1,-1,-1,51,53,55,-1,57,-1,-1,-1,-1,-1,-1,-1,-1,-1,-1,-1,-1,-1,-1,-1,-1,-1,-1,-1],"loss_changes":[6.650977E2,3.422596E2,4.535325E2,2.9309985E2,8.110657E0,2.7347568E2,2.8911072E1,1.7274823E2,8.16093E1,1.8451309E0,0E0,1.1789398E2,2.1606415E1,1.3668518E0,0E0,1.3117096E2,2.2349754E1,1.857969E1,0E0,6.4960194E-1,0E0,9.857132E1,5.328705E0,4.3869324E0,0E0,8.972168E-3,0E0,5.7802246E1,1.5847996E1,2.3996115E-1,0E0,5.838773E-1,0E0,0E0,0E0,3.531311E1,1.1459122E1,1.9260635E0,0E0,1.5663147E0,0E0,0E0,0E0,0E0,0E0,0E0,0E0,0E0,0E0,0E0,0E0,0E0,0E0,0E0,0E0,0E0,0E0,0E0,0E0],"parents":[2147483647,0,0,1,1,2,2,3,3,4,4,5,5,6,6,7,7,8,8,9,9,11,11,12,12,13,13,15,15,16,16,17,17,19,19,21,21,22,22,23,23,25,25,27,27,28,28,29,29,31,31,35,35,36,36,37,37,39,39],"right_children":[2,4,6,8,10,12,14,16,18,20,-1,22,24,26,-1,28,30,32,-1,34,-1,36,38,40,-1,42,-1,44,46,48,-1,50,-1,-1,-1,52,54,56,-1,58,-1,-1,-1,-1,-1,-1,-1,-1,-1,-1,-1,-1,-1,-1,-1,-1,-1,-1,-1],"split_conditions":[1E0,1E0,1E0,1E0,1E0,1E0,1E0,1E0,1E0,1E0,2.2254938E-3,1E0,1E0,1E0,-1.5298885E-3,1E0,1E0,1E0,6.0204407E-3,1E0,4.0860395E-3,1E0,1E0,1E0,-2.7183237E-4,1E0,-1.2896776E-2,1E0,1E0,1E0,1.02048E-2,1E0,7.028784E-3,9.804155E-3,5.4903785E-3,1E0,1E0,1E0,5.9813536E-3,1E0,1.3107146E-2,-9.89823E-3,-8.102297E-3,-3.0529976E-3,-5.2081305E-3,-5.907049E-4,7.0823133E-3,3.7708704E-4,7.272458E-4,-9.101278E-4,-2.012077E-5,1.3517106E-3,-1.286115E-3,4.3083816E-3,7.8111747E-3,3.8633076E-3,5.6852093E-3,1.0137057E-2,7.7294093E-3],"split_indices":[5,1,9,4,8,0,1,2,8,3,0,1,6,7,0,7,0,0,0,0,0,4,3,2,0,2,0,3,0,8,0,3,0,0,0,6,8,8,0,1,0,0,0,0,0,0,0,0,0,0,0,0,0,0,0,0,0,0,0],"split_type":[0,0,0,0,0,0,0,0,0,0,0,0,0,0,0,0,0,0,0,0,0,0,0,0,0,0,0,0,0,0,0,0,0,0,0,0,0,0,0,0,0,0,0,0,0,0,0,0,0,0,0,0,0,0,0,0,0,0,0],"sum_hessian":[1.8555465E4,9.370468E3,9.184997E3,8.362837E3,1.0076313E3,8.817144E3,3.6785336E2,7.299838E3,1.0629989E3,7.1203467E2,2.9559662E2,8.354837E3,4.623064E2,3.2150687E2,4.6346508E1,6.354264E3,9.455734E2,6.756469E2,3.8735196E2,3.2041313E1,6.7999335E2,7.459531E3,8.953059E2,4.4217163E2,2.0134777E1,2.9686176E2,2.464511E1,5.430178E3,9.2408624E2,9.222828E2,2.3290644E1,6.383083E2,3.7338627E1,6.3731384E0,2.5668177E1,6.6221885E3,8.373426E2,3.3202576E2,5.6328015E2,3.839673E2,5.8204327E1,2.646262E2,3.223556E1,1.9445382E3,3.48564E3,8.973345E2,2.675179E1,6.369391E2,2.8534372E2,8.402615E1,5.5428217E2,6.0691577E3,5.530305E2,7.2879767E2,1.08544914E2,2.4736629E2,8.465945E1,3.3471347E2,4.925381E1],"tree_param":{"num_deleted":"0","num_feature":"10","num_nodes":"59","size_leaf_vector":"1"}},{"base_weights":[1.0288791E-4,-1.8549526E-1,1.8944693E-1,-2.511938E-1,3.5946634E-1,2.3441923E-1,-8.8736707E-1,-3.2193476E-1,2.3444045E-1,4.1684142E-1,2.203472E-3,1.9331329E-1,9.7626776E-1,-9.927927E-1,-1.5149666E-3,-3.8070163E-1,7.287969E-2,2.6480045E-2,5.963515E-3,6.561536E-1,4.04622E-3,1.5251455E-1,5.328158E-1,1.0219761E0,-2.6924335E-4,-9.647358E-1,-1.28016025E-2,-4.394027E-1,-3.5748452E-2,4.8124768E-2,1.012133E-2,-1.3715039E-2,6.965156E-3,9.730804E-3,5.4398156E-3,1.1199786E-1,4.7253066E-1,4.301588E-1,5.924713E-3,9.764609E-1,1.3009213E-2,-9.813282E-3,-8.031302E-3,-4.531878E-3,3.1703366E-3,-5.8480573E-4,7.018926E-3,3.7332476E-4,7.2000746E-4,-9.011457E-4,-1.9919951E-5,1.3382325E-3,-1.2733069E-3,4.2665084E-3,7.7405167E-3,3.8256575E-3,5.631628E-3,1.0050705E-2,7.660104E-3],"categories":[],"categories_nodes":[],"categories_segments":[],"categories_sizes":[],"default_left":[0,0,0,0,0,0,0,0,0,0,0,0,0,0,0,0,0,0,0,0,0,0,0,0,0,0,0,0,0,0,0,0,0,0,0,0,0,0,0,0,0,0,0,0,0,0,0,0,0,0,0,0,0,0,0,0,0,0,0],"id":26,"left_children":[1,3,5,7,9,11,13,15,17,19,-1,21,23,25,-1,27,29,31,-1,33,-1,35,37,39,-1,41,-1,43,45,47,-1,49,-1,-1,-1,51,53,55,-1,57,-1,-1,-1,-1,-1,-1,-1,-1,-1,-1,-1,-1,-1,-1,-1,-1,-1,-1,-1],"loss_changes":[6.520017E2,3.3554376E2,4.449607E2,2.8734412E2,7.957382E0,2.6866867E2,2.8429565E1,1.6938336E2,8.004682E1,1.8190689E0,0E0,1.15645966E2,2.1241302E1,1.3615417E0,0E0,1.2864014E2,2.1959326E1,1.8232357E1,0E0,6.445904E-1,0E0,9.667427E1,5.231827E0,4.347809E0,0E0,9.490967E-3,0E0,5.6760986E1,1.555263E1,2.3521972E-1,0E0,5.724064E-1,0E0,0E0,0E0,3.461197E1,1.1263138E1,1.8920441E0,0E0,1.5447083E0,0E0,0E0,0E0,0E0,0E0,0E0,0E0,0E0,0E0,0E0,0E0,0E0,0E0,0E0,0E0,0E0,0E0,0E0,0E0],"parents":[2147483647,0,0,1,1,2,2,3,3,4,4,5,5,6,6,7,7,8,8,9,9,11,11,12,12,13,13,15,15,16,16,17,17,19,19,21,21,22,22,23,23,25,25,27,27,28,28,29,29,31,31,35,35,36,36,37,37,39,39],"right_children":[2,4,6,8,10,12,14,16,18,20,-1,22,24,26,-1,28,30,32,-1,34,-1,36,38,40,-1,42,-1,44,46,48,-1,50,-1,-1,-1,52,54,56,-1,58,-1,-1,-1,-1,-1,-1,-1,-1,-1,-1,-1,-1,-1,-1,-1,-1,-1,-1,-1],"split_conditions":[1E0,1E0,1E0,1E0,1E0,1E0,1E0,1E0,1E0,1E0,2.203472E-3,1E0,1E0,1E0,-1.5149666E-3,1E0,1E0,1E0,5.963515E-3,1E0,4.04622E-3,1E0,1E0,1E0,-2.6924335E-4,1E0,-1.28016025E-2,1E0,1E0,1E0,1.012133E-2,1E0,6.965156E-3,9.730804E-3,5.4398156E-3,1E0,1E0,1E0,5.924713E-3,1E0,1.3009213E-2,-9.813282E-3,-8.031302E-3,-4.531878E-3,3.1703366E-3,-5.8480573E-4,7.018926E-3,3.7332476E-4,7.2000746E-4,-9.011457E-4,-1.9919951E-5,1.3382325E-3,-1.2733069E-3,4.2665084E-3,7.7405167E-3,3.8256575E-3,5.631628E-3,1.0050705E-2,7.660104E-3],"split_indices":[5,1,9,4,8,0,1,2,8,3,0,1,6,7,0,7,0,0,0,0,0,4,3,2,0,2,0,0,0,8,0,3,0,0,0,6,8,8,0,1,0,0,0,0,0,0,0,0,0,0,0,0,0,0,0,0,0,0,0],"split_type":[0,0,0,0,0,0,0,0,0,0,0,0,0,0,0,0,0,0,0,0,0,0,0,0,0,0,0,0,0,0,0,0,0,0,0,0,0,0,0,0,0,0,0,0,0,0,0,0,0,0,0,0,0,0,0,0,0,0,0],"sum_hessian":[1.8551396E4,9.368379E3,9.183019E3,8.360953E3,1.0074259E3,8.815623E3,3.673953E2,7.2981836E3,1.0627689E3,7.118506E2,2.9557535E2,8.353988E3,4.616352E2,3.2105035E2,4.6344933E1,6.3526484E3,9.455356E2,6.756194E2,3.8714957E2,3.2021606E1,6.79829E2,7.459066E3,8.949224E2,4.4150043E2,2.0134756E1,2.964626E2,2.458777E1,5.4285854E3,9.240625E2,9.222793E2,2.3256317E1,6.383072E2,3.7312187E1,6.3645496E0,2.5657059E1,6.6220137E3,8.370519E2,3.3193286E2,5.6298956E2,3.8343613E2,5.8064285E1,2.6425827E2,3.220431E1,5.331821E3,9.6764885E1,8.9732996E2,2.6732582E1,6.3693774E2,2.8534152E2,8.402515E1,5.542821E2,6.0689966E3,5.530173E2,7.2860187E2,1.0845001E2,2.4731284E2,8.462001E1,3.3422446E2,4.9211693E1],"tree_param":{"num_deleted":"0","num_feature":"10","num_nodes":"59","size_leaf_vector":"1"}},{"base_weights":[1.06050684E-4,-1.836772E-1,1.8759707E-1,-2.487362E-1,3.559677E-1,2.3212327E-1,-8.7970704E-1,-3.1878766E-1,2.321592E-1,4.128099E-1,2.1816716E-3,1.9140366E-1,9.6801686E-1,-9.84396E-1,-1.5001857E-3,-3.769926E-1,7.216582E-2,2.6225265E-2,5.907201E-3,6.504516E-1,4.0068147E-3,1.5100086E-1,5.277373E-1,1.013408E0,-2.6668026E-4,-9.564692E-1,-1.2707904E-2,-4.3514037E-1,-3.538482E-2,4.7644824E-2,1.0038916E-2,-1.35795055E-2,6.9022267E-3,9.658319E-3,5.3897724E-3,1.10881E-1,4.679867E-1,4.2600796E-1,5.868682E-3,9.68119E-1,1.2912835E-2,-9.729406E-3,-7.96111E-3,-2.982258E-3,-5.114353E-3,-5.7896663E-4,6.9562267E-3,3.6959763E-4,7.128371E-4,-8.9224905E-4,-1.9723193E-5,1.3248898E-3,-1.2606276E-3,4.2250664E-3,7.6706647E-3,3.7883942E-3,5.5786124E-3,9.965458E-3,7.5915824E-3],"categories":[],"categories_nodes":[],"categories_segments":[],"categories_sizes":[],"default_left":[0,0,0,0,0,0,0,0,0,0,0,0,0,0,0,0,0,0,0,0,0,0,0,0,0,0,0,0,0,0,0,0,0,0,0,0,0,0,0,0,0,0,0,0,0,0,0,0,0,0,0,0,0,0,0,0,0,0,0],"id":27,"left_children":[1,3,5,7,9,11,13,15,17,19,-1,21,23,25,-1,27,29,31,-1,33,-1,35,37,39,-1,41,-1,43,45,47,-1,49,-1,-1,-1,51,53,55,-1,57,-1,-1,-1,-1,-1,-1,-1,-1,-1,-1,-1,-1,-1,-1,-1,-1,-1,-1,-1],"loss_changes":[6.3916394E2,3.289607E2,4.3656018E2,2.8170154E2,7.8071823E0,2.6396097E2,2.7958344E1,1.6608478E2,7.851568E1,1.7934113E0,0E0,1.134429E2,2.0883911E1,1.3565674E0,0E0,1.2615875E2,2.1576635E1,1.789186E1,0E0,6.3966274E-1,0E0,9.4814896E1,5.136917E0,4.3099976E0,0E0,1.0070801E-2,0E0,5.654724E1,1.5263003E1,2.3056936E-1,0E0,5.611541E-1,0E0,0E0,0E0,3.3924812E1,1.1071182E1,1.8586845E0,0E0,1.5238342E0,0E0,0E0,0E0,